x1,x2,x3,x4,v1,v2,v3,v4,a1,a2,a3,a4
0.0,0.0,0.0013142941551751283,0.0,0.0,0.0,0.019648924936166216,0.0,-0.47893536885579424,-0.7629985809326172,0.1300919258494715,0.23357417583465578
-2.560746114792489e-05,-3.627631467144977e-05,0.0012893453491310241,4.389680850666433e-06,-0.005121492229584979,-0.007255262934289954,0.014659163727345378,0.0008779361701332866,-0.5453630770612015,-0.6880540059253735,0.15350488794272565,-0.05798694180799846
-9.738742347857977e-05,-0.0001342961170293054,0.001224465399255662,4.491217925923631e-06,-0.009234500236545998,-0.012348697537281173,0.01166269616991465,-0.000857628755081847,-0.27723852433100227,-0.3306329146728706,0.528750656127494,-0.2891260432350283
-0.0001937018198774294,-0.0002656773992152087,0.0011333021833121457,-2.4779903734410387e-05,-0.010028379043223932,-0.01392755889989949,0.009402510513714515,-0.004996595576984957,0.11846276299541536,0.01486064214920746,0.30076126818884386,-0.5386673211455937
-0.000280494118886362,-0.00039018485435764866,0.001016125804173065,-0.0001040172800043491,-0.00733008075856259,-0.010973932128588498,0.006460063530801774,-0.010850879677002784,0.4211968939368531,0.5758647121129907,0.39229839078497286,-0.6321894988579719
-0.00033010226261817474,-0.00047573332900653897,0.0008809749215655042,-0.00024065011377824173,-0.002591547987799956,-0.006135762801189565,0.005807609820018489,-0.016475687077775737,0.5265096602156736,0.39176915336679596,0.758759922614735,-0.4927719812966187
-0.00033184656241550426,-0.0005224678672665989,0.0007557567146763465,-0.00042916752784773703,0.0022426880283340526,-0.0032111448508224225,0.008446598674482409,-0.021227795736123323,0.44033754301112815,0.19315443670663246,1.0505869038344138,-0.4576497503728987
-0.0002955694194705331,-0.0005393286023872699,0.0006588195692907886,-0.0006535350880194823,0.00501274056066018,-0.00016100217331177415,0.011463822120738435,-0.023645716298225743,0.11367296345409716,0.4168740987954972,0.8344068409731562,-0.02593436204758537
-0.0002483917896574967,-0.0005267343018535833,0.0005799275155613192,-0.0008766945509999305,0.004422785401947098,0.0026798622800490906,0.012055617005700106,-0.020986176297863885,-0.23166399519671343,0.15129879187667572,0.565501191575543,0.5578423621199573
-0.0002212536080705681,-0.0005011282986041321,0.0005014536271468054,-0.0010445371183225253,0.0010048509154386245,0.0024413383698411555,0.011547455183729577,-0.012582337166655078,-0.4519229021049813,-0.19900357391826273,0.6144154995867159,1.1229254641218043
-0.00023213555013921322,-0.000496592994616226,0.00042932565160853464,-0.00111905901666309,-0.003181239329167649,-0.001534277572259937,0.013324799580948697,-0.0023220425014578456,-0.3852951468162733,-0.5961196145019558,1.022602435413473,0.929133468917642
-0.00027643314153806184,-0.0005378555979140556,0.00038579626481216676,-0.0011016111663683453,-0.005678278950602075,-0.00671824308730598,0.017267172932110157,0.005811612560406772,-0.11411277747061188,-0.44067348850725274,1.0474212903751838,0.6975975434552815
-0.000333079942593393,-0.0006149876560363363,0.00037900125861435444,-0.0010218660374491455,-0.005651081260464156,-0.008708168537150158,0.020671675700659812,0.010137413223433174,0.11955231549819567,0.042688398538416994,0.9150283188911119,0.167562589149999
-0.00037911735268192,-0.0006867750745796321,0.0004010787166378978,-0.0009188790406073345,-0.003556400757241247,-0.005649315171509012,0.023041665776381292,0.010459986144929033,0.2993837851463861,0.5690822745898121,0.8405187518095494,-0.10304800485082732
-0.0003987185230672706,-0.0007081422316021843,0.00044380334100981294,-0.0008264008191503648,-0.00036383331982886916,0.0013758837669985745,0.024801108970334163,0.00803565814646491,0.3391297023360895,0.8359575131117052,0.7929189425373895,-0.38181759484199707
-0.0003803193836870339,-0.0006556724943401274,0.0005005447230107395,-0.0007633335056166665,0.004043661195876205,0.009118063685412812,0.02584501730218358,0.004577804560274737,0.5423692008049252,0.7124784705711424,0.6974117793888588,-0.3097531223960377
-0.0003173430729085111,-0.0005385100797936915,0.0005703011122873655,-0.0007314509407560422,0.00855160095982836,0.014314419223874362,0.02740411042547406,0.0017987084118501265,0.3592187519855059,0.3267926371211676,0.8959559008256022,-0.24606610728888434
-0.0002192071253317246,-0.00038972165364643916,0.0006624956507457821,-0.0007125531098242444,0.01107558855552894,0.015443266005576103,0.030332647138541675,0.001980857774509432,0.14557876715460982,-0.10102328078081957,0.9713004973442854,0.2824959798207455
-0.00011161100051890733,-0.0002482784315552383,0.0007800289001880855,-0.0006733236302067135,0.010443636407034515,0.012845378412664067,0.032471852622251454,0.00586503814899675,-0.27196919685349497,-0.4185542378015876,0.7380896549540352,0.49434009507671806
-2.8409852301106934e-05,-0.00014059231285588878,0.000908835334449515,-0.0005839954554820143,0.006196593236525564,0.008691845327205839,0.03258728410236689,0.012000596795943085,-0.5774394372482952,-0.4121523792900579,0.5665456966254159,0.732771634312549
4.9136254141545716e-06,-7.023936338775563e-05,0.0010321173973817242,-0.000424028445805066,0.0004681023065267378,0.00537874456642079,0.031366978356407366,0.01999280513944658,-0.5682587487514701,-0.25046777286695177,0.4709422097390455,0.8656700343881505
-9.904890429718356e-06,-3.0476268730999168e-05,0.0011417950449623766,-0.00019234527883069794,-0.003431805475301323,0.002573874364930502,0.029866401032055546,0.026343828255427033,-0.21172280761414208,-0.3105062674311059,0.510491380946956,0.40453458880793947
-4.56638567767161e-05,-1.5935856162833855e-05,0.001243265186141109,7.43576692812046e-05,-0.0037199877940982265,0.000334208148702561,0.029725477076023375,0.02699676136695347,0.1540863438547614,-0.13742697581448227,0.7428728834029739,-0.2739479665026521
-7.103354467753076e-05,-1.51627458316915e-05,0.0013488650833712184,0.00031911270579958867,-0.0013539497860647043,-0.00017958608247408997,0.030692352242330932,0.021954245936723345,0.319121257751943,0.03466812957915208,0.7320512054149024,-0.7345551195433726
-6.831829249543649e-05,-8.039902930799762e-06,0.001459329668365544,0.0004965170445414562,0.0018970002224835592,0.0016041546626524377,0.030698414628866653,0.013526621811650156,0.3310687439577097,0.3220800194461534,0.5507103274486072,-0.9509697054712654
-3.744336486780623e-05,2.935974782637303e-05,0.001558580121793569,0.000582935125374304,0.004277985303042492,0.00587577548878212,0.028449525929070765,0.003756994354919399,0.14512827215407686,0.5322441457797832,0.2810609881485801,-1.0029557858748859
9.873545443385518e-06,0.00011008003293171492,0.001625337868149505,0.0005768277729948284,0.005185396759195857,0.010268281532286259,0.024199873214448834,-0.004978464830814504,0.03635401907659619,0.3462570629210445,0.15055752448339882,-0.7441360512718946
6.061653092360238e-05,0.00021368275686662545,0.0016451032942517189,0.0004990760523964033,0.004963200336847515,0.010452263254695846,0.019051061878326392,-0.010571879288870524,-0.08079330354626457,-0.30946071843912704,0.10122926384847797,-0.3745468403393095
0.0001056972388943273,0.0002945952021666161,0.0016183199327186471,0.00038705304776038803,0.004052941257297467,0.005730225805302287,0.014890115687391684,-0.011832721638332523,-0.10125851236374495,-0.6349467714395848,0.3481305535209449,0.12237837044690969
0.00013752589218475676,0.00031882834896371313,0.0015629316492186038,0.00028279174854676066,0.002312789400788426,-0.000883596445882884,0.01333007748493209,-0.009019538204392948,-0.2467718589380633,-0.6878176787974494,0.6214108615435014,0.4402583163410052
0.00014346979767544094,0.00027848925598213407,0.0015013809529757288,0.00021833000687475874,-0.0011240083026515905,-0.007184222150432928,0.013657633138825353,-0.003872810130007438,-0.44058768174994,-0.5723074621125593,0.7256493247915161,0.5890872985360966
0.0001101812592597142,0.0001859073991788057,0.001446362167956294,0.0002042308732853397,-0.005533699380493758,-0.011332149210232748,0.014636459729620105,0.0010529834121236299,-0.44135053381849343,-0.2572779498474044,0.7516650489237988,0.3960714098901169
3.822179584792061e-05,7.32889337283255e-05,0.0014024297200041919,0.00022444934977446088,-0.008858193301864959,-0.011191543879863293,0.015874900552291897,0.002990711885700606,-0.22354825045574678,0.28539901592129524,0.777572171166925,-0.008525715174721726
-5.0576667493934954e-05,-1.694080593874111e-05,0.001369772171937752,0.0002447130827959385,-0.008901499366506154,-0.006854404053550028,0.016891439706752567,0.001062034718594914,0.2148870375275077,0.5820289493413578,0.707284715281574,-0.37720971824641664
-0.00011790132061560605,-5.7337765316609046e-05,0.0013477200098142286,0.00023965407557696727,-0.004563431257828066,-0.001224987822023558,0.01799597774087517,-0.002073836162389156,0.6527265842081099,0.5438542969639361,0.795171947099311,-0.2499644579503973
-0.0001308658022049213,-4.357400233186769e-05,0.0013405586490164124,0.0002104483917536153,0.001970534939965016,0.003977740418971829,0.019869599971894036,-0.003767300602281239,0.6540666553505065,0.4966913512351413,0.8611015546608269,-0.08872843002801939
-8.577670146756702e-05,1.4531205953344589e-05,0.001355369582719474,0.00017622697321231703,0.007047285207505842,0.007643301238070627,0.02239043664105071,-0.0030769831059784154,0.36128339815765875,0.23642081258461844,0.9246148347268728,0.2267919292885841
-6.3667141218900786e-06,9.870886817323121e-05,0.0013964380290386574,0.00015837203056722496,0.008834712261629544,0.009192231205906698,0.02512110249511841,-0.0004940054230399976,-0.003797987332918251,0.07336518098259559,0.9030673916430323,0.28980360729909943
7.54484270560203e-05,0.00019386235681186645,0.0014604785892870635,0.00017565995823416158,0.007528315973952532,0.009838466521820351,0.02698485942689521,0.0039515909564273215,-0.2574812702024841,0.0558818822001349,0.7512330502686924,0.5993156685943644
0.0001382541804580453,0.0002897857295921522,0.0015357535811166064,0.00024216127202881236,0.0050328347064524685,0.009346208034236794,0.027367988811345823,0.009348671802502834,-0.24161498329752862,-0.15433357971684625,0.6069418821777952,0.48010050062073795
0.00017898283778624465,0.00037004478279192924,0.001614404526300077,0.00035545303943972686,0.0031128967591874026,0.006705602605718617,0.027660050097680702,0.013309681679680068,-0.14237260615548453,-0.3737875059867891,0.733019430645546,0.3121014748147086
0.00020200946522677235,0.00041915766599682136,0.001696332628249122,0.0004983783987315371,0.0014924287289181366,0.0031169740352598066,0.02802342016446073,0.015275390178681982,-0.18172099989836865,-0.343938208104973,0.6212036382668238,0.08104022498567431
0.00020660888526291993,0.0004338944757022588,0.0017802516190593394,0.0006431191776269982,-0.0005725447216886192,-0.00016961209417231272,0.028058227869915225,0.013672765600410244,-0.2312736902229825,-0.31337901778145083,0.6673069583804403,-0.401565140640022
0.00019090668520896576,0.0004260032602673571,0.0018608856637830113,0.0007500451066169908,-0.002567895289102216,-0.0014086309928080353,0.02736643094715155,0.007712420197588272,-0.16779642325973687,0.06557523805430632,0.4758827126231892,-0.7905039399243723
0.00016404404506327228,0.0004169241488179346,0.001924025396626587,0.0007894628502020083,-0.002804632740036479,-0.000407191297076464,0.024559365493896042,0.0001711285194152248,0.12044893307288418,0.13471270109200795,0.24425325228207445,-0.7177543957102372
0.00014619918244188792,0.00041858186974964655,0.0019475376649002126,0.0007642725263551627,-0.0007643397842403928,0.0007387354834188574,0.019440938033161485,-0.005209193288784351,0.2876096580863331,0.09447265500705632,0.013610311127379315,-0.3583099659296778
0.0001525726633861518,0.00042692986148293267,0.0019158658294350377,0.0006960611520194119,0.002039035973093169,0.000930862863238366,0.013522544746135956,-0.0084330815783658,0.2730654933803792,-0.056047179043154594,0.08426008702387944,-0.28646769198661204
0.00018402617950425296,0.00042624044356353555,0.0018321620463668947,0.0005993174483165886,0.004251667250527065,-0.00106874644711779,0.009034548512567908,-0.010915659162198854,0.16946076210639993,-0.3438746830280766,0.2996897218188759,-0.21004782477999884
0.00022421215356688686,0.00039625624867477846,0.0017163262183748766,0.00047675840721801737,0.0037855275619997145,-0.0049280925306336276,0.007096135761360891,-0.0135961490575154,-0.26268869981187004,-0.42799453367509094,0.5941767834960856,-0.3260501542833105
0.00023960565467667558,0.00033181234884050375,0.0015935407863880953,0.000329080060172969,-0.0007068273400419696,-0.007960687436221314,0.007644627713615276,-0.015939520351494266,-0.6357822805964668,-0.1785244474424464,0.7970706625111561,-0.14262410451246277
0.00020226865985596186,0.00024637601793645264,0.0014815675372075044,0.00016954311733550088,-0.0067605716241007745,-0.009126578744588908,0.009258572322599008,-0.015967868215999364,-0.5749665762152942,-0.05465381423107257,0.8072673148419554,0.13695453161144355
0.00011708333482830873,0.00015271805999918448,0.0013846285233087192,2.488939936237821e-05,-0.01027649338142985,-0.009605012842864726,0.010651474769976388,-0.012962875378625172,-0.12821777525052114,-0.041033005424090885,0.7528622301898855,0.4640440358633948
2.0068232616230543e-05,5.517818178736479e-05,0.00129668659107331,-8.184078586085927e-05,-0.009126527060985788,-0.009902962799499213,0.011057988655274215,-0.008383161666022322,0.3582110393393336,-0.018556985902806467,0.6099896024260449,0.4518987066571749
-4.763797796522518e-05,-4.029839237004607e-05,0.001213359063029444,-0.00014276675173948417,-0.0044147150553053545,-0.009192352031982957,0.011574355608284995,-0.003802031509702656,0.5841513617967531,0.16067913940605755,0.7748328437324761,0.4643273246067583
-6.56278159139888e-05,-0.000119062602520411,0.0011450884207040242,-0.00016316870612349346,0.0008167474655526299,-0.00656048999809003,0.014069365798963444,-0.0002783593670992023,0.4621411423748438,0.3656932673725278,1.0057182499595785,0.24040710391393239
-4.234329931916664e-05,-0.00015737282165539498,0.0011087662485671757,-0.00015999051659333621,0.003840155853411802,-0.001101553828906766,0.017964049645999305,0.0009139972731306524,0.14254053519699061,0.726093966464125,1.0547675750039591,-0.0019357758679614534
-3.67948364839756e-06,-0.0001307041870477436,0.001111642476544615,-0.00014349243484735398,0.0038926072807420136,0.006435280750437041,0.02190904582182096,0.0023856190760657946,-0.13205024973094837,0.7812729494046364,1.015780715716737,0.2962601364549899
2.785630439869092e-05,-4.4707199903844154e-05,0.0011603504511584074,-0.00010082888010920203,0.0024145503286756827,0.010764116678342848,0.02713039897326998,0.006147091871564595,-0.16356114068231786,0.08449423617652463,1.3100389701294315,0.4560344226447702
5.018458954885744e-05,6.0212090050454966e-05,0.0012688846327643328,-1.6534926897091884e-05,0.002051106701357621,0.010219741312516979,0.03387428722024751,0.010711698770857432,0.09087241521870548,-0.19336930934169838,1.3202877348224402,0.4568869572137974
7.937967316898204e-05,0.00015134036530051686,0.0014375659416671614,0.00011304626956072858,0.0037879100226672993,0.0080059137374954,0.03915982443265065,0.015204540520706663,0.2564882490432302,-0.24939620566261733,1.0183687632145513,0.4416813927560486
0.00012675716828943604,0.00022791290987421063,0.0016368262469906645,0.00029071980851554547,0.005687589001423501,0.007308595177243355,0.03999008650438242,0.020330167270256716,0.12344754670801017,0.10993249361220836,0.4292327066881697,0.5834439571539618
0.0001836869245244693,0.0003114133963604216,0.0018262715642344645,0.0005173351327424407,0.005698362245583155,0.009391502119998844,0.037196826816709994,0.024992897575122325,-0.12129289787607933,0.30664889493888947,0.29366441133370935,0.3491021038191602
0.0002331651976997942,0.0004176745217863301,0.001986746408261275,0.0007745998109645445,0.00419729238948182,0.011860722965182858,0.0341959918609845,0.026460038069298433,-0.1789210733441876,0.18719527409791348,0.38771765307755734,-0.05567400498393882
0.00026827536448019906,0.0005365485881525475,0.002126685534753417,0.0010279851570771956,0.002824740966599154,0.011914090308060616,0.03308968330977638,0.024217031153231785,-0.09558921123234565,-0.17652180552236207,0.6725696922371828,-0.3929273782293907
0.000297906708424744,0.0006408507062423967,0.002264459989940862,0.0012424894441095246,0.0031015278223098363,0.008946333309909226,0.03376305760004506,0.018683826253234014,0.1509465823744821,-0.41702959410791585,0.743654221372919,-0.7137136017701633
0.00033236925557362867,0.0007112729857561866,0.0024065667583376233,0.0013899011119987655,0.0037909816074670945,0.005138122592848761,0.03395614595163963,0.010798507324614171,-0.013055825343030514,-0.3446125493041772,0.5765125045023586,-0.8633501839538051
0.00036830444815986535,0.0007542807295260463,0.002531587987969609,0.0014632180903726016,0.003396056909780243,0.003463426161123177,0.03034594984708993,0.003864888350153045,-0.06592911419433978,0.009673262959060347,-0.017002669855932573,-0.5233736109384202
0.0003959656882243022,0.0007895163308424544,0.002597750792921137,0.0014762604557649855,0.0021361911031071304,0.003583694102158447,0.022184461015548055,-0.0012564152716762677,-0.18604404714028278,0.014380325247993708,-0.33374604089607784,-0.5008871134274424
0.0004088030161520826,0.0008190189901309961,0.0025803018561953084,0.001443359234297671,0.0004312744824489475,0.002316837755549886,0.01362360151161874,-0.005323829021786619,-0.1549392769913538,-0.267751594569706,-0.09687680433342039,-0.31259563659462786
0.00040820923071654465,0.0008213003645639146,0.0024964645878157287,0.0013695509813894738,-0.0005500315695565405,-0.0018605628689661842,0.008906794684797676,-0.009437821559852837,-0.0413219334097438,-0.5677285303335081,0.4350644945255727,-0.5102028710186157
0.0003989772421105827,0.0007714206949901851,0.0023876655314705366,0.001243004378402696,-0.0012963661516358527,-0.008115371045779723,0.008631243918496423,-0.015871499037502734,-0.10794498300611866,-0.6832331050291999,0.7913744077705415,-0.7765326245113642
0.0003734598788273691,0.000666051022982534,0.002276610937053752,0.0010513988260364778,-0.0038071065050068655,-0.012958563355750484,0.008455687070479055,-0.0224496114357409,-0.3942030876680839,-0.2854053569649523,0.4550632781823497,-0.5390898551362688
0.00031485362555348307,0.0005305742921125371,0.002146368378305206,0.0008153809778294166,-0.00791414414977034,-0.014136782818248907,0.004793651052144122,-0.024753958205671337,-0.4272044412846109,0.04976146446526786,0.09407857370702855,0.07822050115018153
0.00022440004714074785,0.0003944711194539262,0.0019693867511790288,0.0005766564342890535,-0.010176571532776702,-0.013083851713473265,-0.0008921266050471444,-0.022990950502401276,-0.025281035316661593,0.16082475648986028,0.050314950411083026,0.27438103950383064
0.0001280720250422074,0.00027095329331919965,0.001747082851467378,0.00035770945448914673,-0.009089032886931392,-0.01161971351347205,-0.004270803464950557,-0.020798445457580087,0.2427887644857235,0.1320028835103827,0.5554987331645996,0.1641199694604072
5.3071319643723844e-05,0.0001570436770675267,0.0015173736826737093,0.00016057385662630806,-0.005911108192765319,-0.011162209736862536,-0.0023731804214507483,-0.01862867411498765,0.3927961743474909,-0.04050212818847998,1.1055749310917267,0.2698342990580802
8.530973961875478e-06,4.235397806074065e-05,0.0013264723597084872,-1.603111202778278e-05,-0.0029969609436043525,-0.011775730064494673,0.003490765700738748,-0.016692319615830523,0.1900332754847024,-0.08220193733794756,1.3487633489025375,0.11743660077334517
-1.5969155246554845e-05,-6.792862714426377e-05,0.001196273259457674,-0.0001756018974557969,-0.0019030648980817122,-0.010280790976506209,0.009767264121431068,-0.015221837469772305,0.028745933619825692,0.38118975493564056,1.1880853907922915,0.17665982843829853
-3.743704491646269e-05,-0.0001507237305127587,0.001119136136759756,-0.00031803928651931315,-0.002390513035899856,-0.006278229697192776,0.014103161211317779,-0.013265640342930946,-0.12623556118345447,0.4193225009270459,0.9606430827414155,0.2145795969299733
-6.84803263246982e-05,-0.00019101062015141327,0.0010754131742263964,-0.00043635191207850915,-0.0038181432457472467,-0.0017791482305381376,0.016450096154342744,-0.010396884768908252,-0.1592904807860237,0.4804937924038818,0.7902929614199422,0.3591715178745656
-0.00010291945504316325,-0.00019086121840936578,0.0010521430926034106,-0.0005168866999541795,-0.0030696824979457617,0.0018090285789476366,0.018193737393392518,-0.005710072806225818,0.3089826303463207,0.23714156949327303,0.8399843419463774,0.5781908746619211
-0.00011363760689976797,-0.00016174075346394925,0.0010478768636064165,-0.0005373617675278285,0.0009260521266248167,0.004015064410135669,0.02025086667954107,0.0016150592914960203,0.490164294567795,0.20406559674433333,0.8529905708396983,0.8868355448824465
-8.112836088951777e-05,-0.00011495184452551134,0.0010683656070208083,-0.00047688347659428795,0.005575797075425223,0.005342717377551914,0.023144731875669747,0.010480598895212087,0.43978469519228625,0.0614649967389157,1.007331523942402,0.8862723758607667
-1.1088226022660396e-05,-6.0721606719472545e-05,0.0011263497927513923,-0.00034133953004637985,0.008432229897946251,0.0055033301836558465,0.027749955142779496,0.016628190414369533,0.13150186931191954,-0.029342435518129206,1.1952621850359124,0.34324592797072273
6.796596712236233e-05,2.055462853719856e-06,0.001234291094105027,-0.00016592013605495857,0.007378608731058292,0.007052083730982631,0.03313615500027983,0.018455688383914724,-0.34222610268951137,0.3390931449834861,1.1635268420205187,0.02225366593831546
0.00012673067224125165,8.929625744367051e-05,0.0013884198754810252,1.5013056556307336e-05,0.004374332292719574,0.0103960751870075,0.036987451147252264,0.017730950138338458,-0.2586291849782322,0.3297051462214876,0.888281442930333,-0.16720131505356872
0.0001632178205911113,0.00020574162130022742,0.0015627191832528998,0.00018239822062620745,0.002923097377252353,0.012892997584303883,0.037170260279455095,0.015746082675641565,-0.03161779811521204,0.16967933323778916,0.42982943906659754,-0.22977217748580947
0.00019625936193093147,0.0003364701072332106,0.001724890099938436,0.0003292082562567578,0.0036852108907116823,0.013252699602292755,0.03456177292998458,0.013615924450468497,0.1840405008070779,-0.09773892964001474,0.33002214659566453,-0.19625946754880386
0.00024012535382488676,0.0004542145141444194,0.001858815874919186,0.0004563095163006015,0.005087987488079377,0.010296181779949006,0.031521231938497846,0.011804327558300246,0.09651481866646094,-0.49356463482873514,0.34341871066335417,-0.16605991088484617
0.00028751985396519887,0.0005310179450411909,0.001962366284748437,0.0005647729862782127,0.004390912539983046,0.005064504399405288,0.028486699899684814,0.009888366437221989,-0.23592980828572696,-0.5527708412800084,0.33122393713040443,-0.2171323133308054
0.000314199659109682,0.0005576883418739927,0.0020303148338971784,0.0006465226184006193,0.0009450484889135823,0.0002695749671550859,0.02440085980239588,0.006461559987259332,-0.4532430019281658,-0.40621504517003204,0.13315709896817385,-0.4682289766617258
0.0003065022693675818,0.000544681230100523,0.0020552947776748933,0.000689135440336134,-0.0024845264373336276,-0.0028709973218490267,0.019892978825479486,0.0020610043998436052,-0.23267198332127614,-0.2218994126307905,0.24681576120491233,-0.4118821408214195
0.00027408826036675964,0.0005089087660484645,0.0020363328065665454,0.0006924232930148362,-0.003998275362830802,-0.004283495488562671,0.015612476825183411,-0.0014034338641031644,-0.0700778017781587,-0.06060022071193849,0.17863289429223772,-0.28100551196793444
0.0002345156310016484,0.0004610544385665934,0.0019735486916732468,0.0006592535108135947,-0.003916250510191449,-0.005287370007811561,0.01112855006848925,-0.005230522576145133,0.0864827723060293,-0.14017468313783943,0.20613080992529498,-0.48441223044045933
0.00019758569300709346,0.0004026899134000465,0.0018770072881574176,0.0005795117771911005,-0.0034697370887195396,-0.00638553502549782,0.008861019100677393,-0.0107178241483537,0.002819911988352519,-0.07945832039941236,0.6219120520686985,-0.6130480840012541
0.00016449071813408556,0.0003370778134742315,0.0017752019253432186,0.0004486922139166615,-0.0031492578858820404,-0.006736884959665171,0.010075758208815228,-0.015446088506534107,0.06127592857914732,0.009188333565942175,0.9025848251152333,-0.33260478763482737
0.0001353666231532684,0.0002692169728528585,0.0016830223773557187,0.00028814764686165126,-0.002675561110281391,-0.00683528316460943,0.010786182066017213,-0.016662824904467945,0.033463426540982555,-0.02886797455479395,0.5210490018815286,0.08925750804805943
0.00010552655259977096,0.00020184852940996728,0.0015856215516387383,0.00012793230307787536,-0.0032924530004180973,-0.006638405523968817,0.009031502662919138,-0.01538024385228723,-0.15684180456832375,0.06824350268291668,0.4095641730552215,0.16725870238808327
6.917693879058915e-05,0.0001396290322590784,0.001471784624202961,-1.0386525849882769e-05,-0.003977469761418265,-0.005805493906208958,0.007498961722257865,-0.012283521933264397,0.019838452368290183,0.09833882086905521,0.5654766943688887,0.4520856814164834
3.3499335115760844e-05,8.03595337654703e-05,0.001355904311043036,-0.00010946445504575294,-0.003158050973547395,-0.006048405792512665,0.008622825518089527,-0.007532063905909638,0.14404530520588388,-0.14692119812979665,0.9408451203538084,0.4982059240544682
5.418761483522688e-06,1.3788948856387288e-05,0.0012624526688962533,-0.00016841248479303758,-0.002458063752900236,-0.007265711189303937,0.01198469592488641,-0.004257542043547289,-0.004047861076452053,-0.09653988122845791,1.013078016561933,0.15669844841800173
-1.7856357800034802e-05,-5.296600914841605e-05,0.0012012823938582972,-0.0002056009613613762,-0.002196960103811261,-0.0060852804116567315,0.0150790989398548,-0.003180153270120436,0.05626859089424696,0.33262603675789904,0.8873516419881098,0.058779306267368825
-3.7728749929648717e-05,-9.546464347421741e-05,0.001164190163634484,-0.00023578052728766478,-0.0017775183221115216,-0.0024144464535035414,0.016800304887714973,-0.002855759915137279,0.027619765445700994,0.401540754872739,0.7384386031402901,0.006099364729262535
-5.2372426710081636e-05,-0.00010329618355213423,0.001142305452771203,-0.00026599427268541367,-0.0011512170339750623,0.0008481384379201771,0.018120602811961286,-0.003186989164412498,0.09764049218159088,0.25097622341200465,0.8071700372653373,-0.07234521458430632
-5.824660350083843e-05,-9.029107336115574e-05,0.0011321334927294508,-0.00029747462477465675,-2.3618324176297124e-05,0.0017528836002755218,0.019142855052020652,-0.00310908125343612,0.12787924977816217,-0.07002719094093574,0.6788294663029006,0.08792679677958193
-5.273997021406269e-05,-7.946318977326002e-05,0.0011284335865510892,-0.0003201594356315774,0.001124944981531445,0.00041269311730362146,0.019415013584639488,-0.0014278809179480087,0.10183341136338625,-0.1980109056534443,0.6571512957772313,0.2483132703180403
-4.215519196025853e-05,-8.323361755719537e-05,0.001126706948767773,-0.0003255642744914509,0.000992010669229387,-0.0011667786740906915,0.019537508731029704,0.0003469131459733041,-0.12842027382379784,-0.11788345262541827,0.6488967890571768,0.10664554246622227
-4.012826950074634e-05,-9.893457037868615e-05,0.001120507150589337,-0.00031988215270359213,-0.0005866261773269481,-0.0019734118902074637,0.018520381505615507,0.0007895112115984533,-0.18730709548746916,-0.043443190597936165,0.4292268214163483,-0.01812592934119242
-5.483849268180292e-05,-0.00012248112791821974,0.0011013530498572,-0.0003170128379666769,-0.002355418458884368,-0.0027358996176992546,0.016946648220289545,-0.00021564826421540187,-0.16645136082401485,-0.10905435490042198,0.5375755770748247,-0.18290596582157861
-8.371752069275947e-05,-0.00015583730351673278,0.0010676277797212253,-0.00032984388141270033,-0.0034203871433069414,-0.003935335502003354,0.015606147624847917,-0.0023505604249892897,-0.04654237606049977,-0.13083282196039775,0.47587335939321423,-0.24407646633319893
-0.00011729226444130018,-0.00020061311279745273,0.0010210901939050761,-0.0003664679512268235,-0.003294561606401201,-0.0050198263541406385,0.014384185084254673,-0.004974253537835339,0.07170748344164785,-0.0860653484670591,0.561283188044502,-0.280662156236011
-0.0001435670902613679,-0.00025461406215397263,0.0009650164598673115,-0.00042504240891587234,-0.0019604035576123403,-0.005780363517163342,0.013698917980524854,-0.006740637999974434,0.19512412631612425,-0.06604208413748153,0.5832124467658992,-0.07261473619180792
-0.00015914911079612017,-0.00031270535776233477,0.0009060969587631074,-0.0004922383598274972,-0.0011560005493381144,-0.005837895604509086,0.013815031670966763,-0.00669855218235054,-0.03424352466127906,0.054535666668332705,0.7215593468788473,0.08103189971658664
-0.00017268311114283634,-0.00036493630502463457,0.0008508053476299897,-0.0005581720199878846,-0.0015507995200051193,-0.004608293847950874,0.01442449597474214,-0.006488179849726942,-0.04471626947212193,0.19138468464330965,0.6818825694325932,-0.03895743319186695
-0.0001895103338016549,-0.00040006977573642656,0.0008016063265404978,-0.000622043652335949,-0.0018146450117585942,-0.002418400294407524,0.0150335496796919,-0.006286146619885936,-0.00805282887857306,0.24659402606536024,0.7214772271137238,0.07936407916006805
-0.0002064786174686521,-0.00041514537776181674,0.0007609525801672611,-0.0006783853735337833,-0.0015790117216408438,-0.0005967201106705114,0.016133550917993185,-0.004982197619680927,0.055179486902123154,0.11774201068204232,0.7800720761028979,0.18142572088093378
-0.00021767861305656977,-0.0004174541683949521,0.0007356647120189408,-0.0007194051794723053,-0.0006609873959426911,0.0001349619840434375,0.018106725324675187,-0.0032217635680234667,0.12842537823750738,0.028594408260747467,0.8961118607898677,0.17066108945055825
-0.00021712387557917817,-0.00041565291463089145,0.0007279880524261209,-0.000743978912557245,0.0007719348914210102,0.00022528876876869446,0.019655792629093265,-0.0016929830489644758,0.15815907923523287,-0.010529051315696078,0.6952506556501126,0.13509501436123994
-0.00020681581014982343,-0.0004123320533968427,0.0007302214860909211,-0.0007504487281480945,0.0012896781944499395,0.00043888347804106023,0.0200887439761992,0.0003990199307945836,-0.05461041862944699,0.05324799317016923,0.6728886693274397,0.2833055815905719
-0.0001995395451431516,-0.0004074798092284242,0.000734455000779082,-0.0007369490966580282,0.0001655748068844238,0.0005315653556426322,0.020055808833765405,0.002300906367218662,-0.17021025888365615,-0.03471161764985484,0.602073357742166,0.09707170569424378
-0.0002056196321271942,-0.0004044148433680143,0.0007324249301595963,-0.000707489094607234,-0.0013815922036929395,8.142781643935402e-05,0.018836026914669905,0.0035910940429401874,-0.1392231432318165,-0.0553158901908008,0.4355193139950988,0.16096582945006138
-0.00022125356864949292,-0.0004078495637043398,0.0007243277473530096,-0.0006620146240152244,-0.0017451951007668076,-0.0007683718837044528,0.01884238639634519,0.005503800075461729,0.06650256381704289,-0.11464404983796059,0.8473016378963227,0.22157537705424696
-0.00023258811757557275,-0.00041934638010967525,0.0007273759122390245,-0.0006077297024185894,-0.0005217146844491577,-0.001530991397362643,0.021065096453190213,0.005353184243865268,0.1781935194464871,-0.03787985289367743,0.8787894290290472,-0.2516985433735392
-0.00023084905698818824,-0.0004316059689757812,0.0007523633768712819,-0.0005701702218284542,0.0008695268019260592,-0.0009209263758585412,0.023230246345593706,0.0021587118741617783,0.10005477782855626,0.15989285719449778,0.835789605008016,-0.3871959305671587
-0.00021716449870354303,-0.00043066005151972395,0.0007911323304890553,-0.0005645100253032118,0.0018673848550029833,0.0011101098670699859,0.023821394250293407,-0.0010266725691133048,0.09951683278682855,0.24631439139120762,0.5639890314882889,-0.24988095808785799
-0.00019427478149380224,-0.0004106104036390834,0.0008232126373194832,-0.0005842111624104029,0.002710558586945175,0.00289981970905812,0.021892516988124604,-0.002913554852324907,0.06911791360160979,0.11162757700641926,0.3317845716343158,-0.1274954985544624
-0.00016361491463481076,-0.00037921078929927345,0.0008315687454685573,-0.0006128770093833339,0.003421414784853121,0.0033801031589038733,0.019076554514022626,-0.002819614542261295,0.07305332597997949,-0.015570887037268638,0.3865719891016534,0.14628356056718472
-0.00012899168374824716,-0.00034782811269197555,0.0008177015783174982,-0.0006357515789492159,0.0035032313924595973,0.0028964321625557076,0.017447861928097986,-0.0017552993709150978,-0.05669000445868422,-0.08116331223236448,0.5692385492697836,0.06657947370205475
-0.00010328750288746767,-0.00032493107206260055,0.0007969818883158371,-0.0006481840625788091,0.0016376047796963001,0.0016829759633192913,0.017706049943902236,-0.0007311973550035492,-0.3164353180939752,-0.16152792761491877,0.763948109447431,0.13824092948025496
-9.995652586096037e-05,-0.00032175958424093034,0.0007894030178410031,-0.0006472407053482809,-0.0009714093743948393,-0.0010486783989852484,0.0200760258334634,0.0009198688011091984,-0.2053675127242527,-0.3848029448459892,0.991596124021167,0.19197230174229457
-0.00012006620598882008,-0.00034551831855379777,0.0008057334313638973,-0.0006283260150524684,-0.003050526651177102,-0.0037030684635882367,0.02248790674344786,0.002863069258053293,-0.2104559426321998,-0.14607506807460846,0.77232911353209,0.19666778964652432
-0.00016051355176390324,-0.0003852845921871509,0.0008382038385345062,-0.0005896383703428864,-0.005038942503839532,-0.004250186263082387,0.023304024563006363,0.004874459683863103,-0.18722722790028612,0.03665150817577845,0.6724435059359752,0.20561029551543752
-0.00021113696130660927,-0.0004240894392437541,0.0008710237441714592,-0.0005349377643645081,-0.005085739404701675,-0.0035107831482382567,0.022557806436716663,0.006065661511812566,0.17786784772785758,0.11122911479304765,0.4598619243624498,0.032630070074455286
-0.0002487029169368741,-0.0004459698090648039,0.0008900862047105391,-0.0004686124643314033,-0.002427451721351289,-0.0008652908159717063,0.020552535543431744,0.007199398494808394,0.3537896889422195,0.4178693516602624,0.4206329525369313,0.19411732652471025
-0.00025357393716468005,-0.0004385169835339008,0.0008898123054087628,-0.00039834888295368686,0.0014532476757900966,0.002355855922152326,0.01869053446854543,0.006853317780734888,0.4223501904860576,0.22635999596454404,0.4885158880421706,-0.2633334693394116
-0.00022308593896128108,-0.0004052330286676911,0.0008818674252141015,-0.00035129899686913856,0.004644351964889698,0.004300935051089615,0.01901833936485475,0.0025566594361747736,0.21587066733386273,0.1626558298229137,0.8585941467760586,-0.5959981995726111
-0.00017323221997421362,-0.00035475493573452826,0.0008923074402183378,-0.0003569256713342216,0.005326391832523794,0.005794683535542958,0.022367513508324922,-0.0036819943291913765,-0.07946269380704363,0.13609386706775495,1.0927897374743405,-0.6517325535006189
-0.0001265849243753423,-0.00029553902144034016,0.0009301505983797125,-0.000414252616920808,0.004003067287250469,0.006048499323294662,0.02449896799628245,-0.007783394788125907,-0.18520221524762126,-0.08533070951741428,0.6150502156735297,-0.16854753828628732
-9.640496174724287e-05,-0.00024011734394322387,0.0009731432864894889,-0.000488458938538409,0.002032925238369417,0.005035836176128598,0.023397419498005265,-0.007057869535394291,-0.20882619452858908,-0.11720191991579854,0.4461891402273982,0.3136525888326105
-8.423081403519634e-05,-0.0002025937757440875,0.0010022003631046533,-0.0005341352244982633,0.00040190430403988877,0.002468877463698677,0.021711845697360045,-0.002077387656576578,-0.1173779923373166,-0.39618982257018565,0.49824515519992285,0.6824437869309321
-8.503787690746905e-05,-0.0001955771202642815,0.0010167398888643211,-0.0005187419298001242,-0.0005633168784944294,-0.0010655463677374773,0.020493909326905986,0.005156046596204397,-0.07566624416954704,-0.3106949437170452,0.5397166262656306,0.7642430636252628
-9.799652644118662e-05,-0.00021848888619584145,0.0010243416158900141,-0.00043849204776531255,-0.0020284130282490855,-0.0035168068185745137,0.020324285950565044,0.01089392981075794,-0.21735298578138418,-0.17955714645036208,0.7079077540225456,0.38333357928544576
-0.00012715473663248958,-0.0002560204763677843,0.0010362926624287443,-0.00031932331149140135,-0.003803229010011506,-0.003989511215814051,0.02136377322951339,0.0129398174440243,-0.1376102105710999,0.08501626700245463,0.7815387573234889,0.025843947367826026
-0.00016886808294186347,-0.0002844107682230967,0.0010650916841002886,-0.0001972011838729572,-0.004539440251863272,-0.001688547155248433,0.023693880977127903,0.011484608079664529,-0.009632037799253368,0.37517654511066895,0.9660318477557782,-0.3168858202397802
-0.00020486962389494335,-0.000285406557207478,0.0011140888183028665,-0.00010363813656311519,-0.002660867938752704,0.0014893893583721733,0.025403395735720136,0.007228001382303875,0.385346500421367,0.2604107576134523,0.6574201595190333,-0.5344355192323507
-0.00021110362732670138,-0.000256684405274594,0.0011655778402359933,-5.695409549927207e-05,0.0014140672524010972,0.004255041028204624,0.024192258523237628,0.0021088068304647486,0.42964053780939326,0.29271957635303786,0.38190145354083016,-0.4894033911354745
-0.0001768817727775195,-0.00020403846772931107,0.001199604025329516,-5.6147210824850785e-05,0.005430303657435277,0.006274146480851967,0.02191082836779934,-0.0019474298955804922,0.3736067431974428,0.11110151417643072,0.4433615709278774,-0.3218439540735736
-0.00011262691907001739,-0.00013703190069659066,0.0012148837615841403,-8.543267845167966e-05,0.007420667084065148,0.007127166925692114,0.020442968755457955,-0.003909663629785283,0.02446594212853137,0.05950257479159865,0.5446155621602106,-0.07060279276738457
-4.677893884571228e-05,-7.000811359965995e-05,0.0012199888799602004,-0.00012447211938276803,0.005748928960795872,0.006277590493694027,0.01987590479208648,-0.0038982245564323915,-0.3588135667823864,-0.22941786119121604,0.6235207007218588,0.07289060743796283
-1.1818758115078885e-05,-2.1910810349176675e-05,0.0012213123155802605,-0.0001584692490214366,0.0012431071853308065,0.0033418701564026272,0.019686632204258005,-0.0029012013713013256,-0.5423507883106267,-0.3577262062670639,0.6201738372688111,0.12651402958825042
-2.0847010352500174e-05,-1.1380569936953954e-05,0.0012233616729883162,-0.00017629753641815177,-0.0030487576328150643,-0.001235822073958082,0.020021089149685527,-0.0006644561080417053,-0.3160221753185475,-0.557812239805078,0.7282666073730582,0.3208350230636736
-6.363948817135267e-05,-4.9199972628941635e-05,0.0012283484178181442,-0.00017189666976864606,-0.005509737930955435,-0.006328058464439452,0.020274109688612516,0.0015446294379428474,-0.17617388430952663,-0.4606350382911961,0.6038865559687048,0.12098208613323691
-0.0001231490367654507,-0.00012404936761043682,0.001226385702473176,-0.0001467571989636339,-0.006392171787864173,-0.008641820531859586,0.018631197114726262,0.003483264723059587,-0.00031288707222087986,-0.0021173751928305062,0.34907998481040875,0.26674497089011096
-0.00018434128568498538,-0.0001991290422718204,0.001202092429026442,-0.00010546612042259501,-0.005846277996042763,-0.006374114400417133,0.01580799806825941,0.004774950985148187,0.10949164543650292,0.4556586014813211,0.36782926145258593,-0.008407718472390857
-0.00023132932194577094,-0.00023914616808331737,0.0011584203514213044,-6.557224046861288e-05,-0.0035513292561143496,-0.0016293107618822588,0.014755436283045507,0.00320382500564824,0.3494981025491797,0.4933021262256536,0.7032074370609986,-0.30581747742759846
-0.0002465052278723122,-0.00023523419121665028,0.0011196856951935646,-5.537737716750149e-05,0.0005161480708060942,0.0024117061352156768,0.01679548234373894,-0.001164852345425963,0.463997362834909,0.3149012531939335,0.9863508306340527,-0.5679179927872421
-0.00021851672397013428,-0.00020420489092161278,0.0011087473190327735,-9.196099208520501e-05,0.005081552709629494,0.0037941539237918227,0.02031469229643528,-0.006151870638114742,0.44908356492977075,-0.038411695478704266,0.9990402154615805,-0.4294856657505136
-0.000154367861784512,-0.00016374678144215267,0.0011305738086747825,-0.00016449865006212865,0.007748219727494963,0.004297467972100199,0.023348455504298943,-0.008355660957269986,0.08424983864332314,0.13907450514037956,0.8892614816675168,-0.011272398080535484
-8.438784513979202e-05,-0.00011258788003476348,0.0011712765272020118,-0.00023582747770105444,0.006247783601449034,0.005934312309377639,0.024089938073479346,-0.005910104570515174,-0.3843370638525091,0.18829436231510843,0.5405840877249284,0.500383675431498
-4.2889377057750097e-05,-4.9947236981098666e-05,0.001211298114761237,-0.00026260690380231156,0.0020519100149593485,0.006593816301355327,0.023212229310698124,0.0005542193502637528,-0.4548376534454278,-0.056393563919570844,0.5654232152751921,0.7924811087242875
-3.825289497131599e-05,7.49736160849582e-06,0.0012476836909302935,-0.00021509117209190848,-0.0011246135976725274,0.0048951034165635714,0.023362735795445615,0.008948926991816864,-0.18046706908094734,-0.28334901303878024,0.7462271372306706,0.8864604195863347
-5.595629213505213e-05,3.803856924365443e-05,0.0012924720105043407,-9.289788088487079e-05,-0.0024160658350747006,0.001213138110468151,0.024892777991696254,0.015489731249590676,-0.07782337839948733,-0.45304404818030386,0.8413303575758226,0.42170043196842755
-7.539545444486773e-05,3.3199377816789476e-05,0.0013552443615130424,7.151213550060029e-05,-0.0014717666268884194,-0.002180976395841142,0.0269595420823765,0.017392272027503538,0.26668322003674355,-0.22577885308155465,0.8535715161165915,-0.0411922763858551
-7.988571336977329e-05,1.0848059493822012e-05,0.0014333477266506307,0.0002323216134145197,0.0005737148419073081,-0.0022892872687523503,0.027958980817473607,0.014769623555280349,0.14241307372240192,0.20411667849931292,0.6278652864591947,-0.48333741805878294
-7.239986358409505e-05,8.321928829606e-06,0.0015095326730294699,0.00035865223297977907,0.00092345511522834,0.0017840611359091476,0.02657585833062663,0.01049650035777153,-0.07246501905819552,0.6105530024329867,0.3770592717277748,-0.3712872214429809
-6.257885230255252e-05,5.3873830118801285e-05,0.0015649673067633498,0.0004448877038762707,0.0010407471410801654,0.00732631912192991,0.023808918288481785,0.006750593821526792,0.0959234242285606,0.4978985947711657,0.351101775399621,-0.37789408580596684
-4.474569557697311e-05,0.00013570381599046702,0.0016010500213107161,0.0004930573454955487,0.002525884204035717,0.009039678052403235,0.02270547449332392,0.002883334502328813,0.20110398836254967,-0.15522680867650063,0.7097585211251707,-0.3955577780336289
-1.021348619990843e-05,0.0002100292804020827,0.0016404838904614232,0.0005113797487498559,0.004380557671377218,0.005825414829919899,0.024479149209149932,0.0007811461485326275,0.16983070510575055,-0.4876258358201665,0.9265254775963965,-0.0248798927256082
3.733563033139219e-05,0.0002511810609182467,0.001698310831600925,0.0005176125662553645,0.005129265634882908,0.0024049412733129017,0.026384088891082874,0.0004654173525690934,-0.020089112404612697,-0.19646887550123304,0.7360115143465567,-0.03826586646709862
8.082349268191177e-05,0.00027419766165122643,0.0017617617300774012,0.0005272417704127334,0.003568306835221007,0.0021983788732830474,0.025603940676544812,0.001460423478904685,-0.2921026475277673,0.15515639549526217,0.3895078983021964,0.23726709173421695
9.937713652968053e-05,0.0003022078904876352,0.0018084863894039082,0.0005541209568891562,0.0001424219343327442,0.003403666893998709,0.023038841061089,0.003915413816379873,-0.3930743326498853,0.0859012086478701,0.37902123416300576,0.25373097576082065
8.700119048223121e-05,0.00033266138636924063,0.0018315355680779966,0.0005994152787035303,-0.002617611143822607,0.0026870322823223745,0.020868844546061104,0.0051434505464949395,-0.15893228298118495,-0.229228130983137,0.4685285183877797,-0.008123629737807392
6.0576605502228934e-05,0.0003450968992850908,0.0018411548095520144,0.0006496472230492116,-0.0026673058521778483,-0.00019992969915233775,0.0203528536210749,0.0049029383226413354,0.1489933413101367,-0.34816426531180544,0.7098223521713445,-0.039978815032913395
4.1941217801812756e-05,0.0003273211744412385,0.0018520204495081165,0.0006950194423513573,-0.0010597716879053878,-0.0033552152696181216,0.02111812424247795,0.004171505537787801,0.1725134915443554,-0.28289284878135135,0.7247808276656306,-0.10630774193779341
3.653522843929698e-05,0.0002861579142252286,0.0018634807385230624,0.0007327241416745489,-2.1426184597767364e-05,-0.004877436773583861,0.02047178343284364,0.003369434326850506,0.03515560911716867,-0.021551452011796535,0.4275000659638722,-0.05410650024966562
3.503994670847397e-05,0.00024738922804632936,0.001860985155614362,0.0007598678015377135,-0.0002776301615668344,-0.0028763004621959872,0.018326949857748732,0.00205929764578242,-0.08639640451098207,0.4217787142893712,0.4250822745735112,-0.20792083596395156
2.9008152452728512e-05,0.0002388988790156044,0.0018390253554733211,0.0007631360400534011,-0.0009287286895822575,0.0011782306560509928,0.016578939986375524,-0.001405649942644895,-0.04382330109210253,0.3891275093600248,0.5068648067082119,-0.48506868172151146
2.0034796958869972e-05,0.0002573779741108895,0.0018080961886962161,0.0007274802709796308,-0.0008659424091894505,0.0025175883630060257,0.016533076530535908,-0.005725503872109157,0.056380557170663925,-0.12125596796901827,0.7655115576802302,-0.3789021041713411
1.9933148863677238e-05,0.0002673032666892501,0.0017812101833553464,0.0006550953835868943,0.0008456127901509036,-0.0005325298473339039,0.017387572273622576,-0.00875147360643815,0.2859304826974069,-0.4887676740989676,0.6869366464934684,-0.2262918426944574
3.796123186654204e-05,0.00024490868265922966,0.0017531112826992298,0.000559078560449019,0.002760003810422056,-0.003946386958670183,0.016290497467486537,-0.010451891021136918,0.09694772135682356,-0.19400374816828825,0.37519744783568865,-0.11379164024529603
6.129824528135974e-05,0.0002029097471740883,0.001702447913104745,0.0004560429924077173,0.0019073988725414846,-0.004453400138358088,0.012874678485948914,-0.010155222587123416,-0.2674687089329378,0.09260111223070722,0.2231878114131517,0.1731253270479966
6.357179992101006e-05,0.00016471345502261055,0.0016186404629074337,0.0003599015313069055,-0.0014526879446114197,-0.003185858291937463,0.009661681346921275,-0.00907306963303894,-0.40454865449764305,0.16090725705341768,0.41576181633768516,0.043305263768898705
3.053797611066266e-05,0.0001368846846309126,0.0015203457476497023,0.0002695573888329415,-0.005154076817458062,-0.0023798957864021274,0.009977225473864893,-0.00899575886175386,-0.33572912007168537,0.00028524405364949157,0.9288960646074035,-0.02784310951188279
-2.857148460837282e-05,0.00010310202852580531,0.0014414364981198415,0.00017398008946525295,-0.006667815326349033,-0.004376635434619331,0.013538774492495367,-0.010119701011783848,0.03298141829349105,-0.3996331736970903,1.0649627946750564,-0.1969453204941149
-8.811842682496346e-05,4.129680884815455e-05,0.0013968266459810196,7.339327194756922e-05,-0.0052415731169690935,-0.00798440850091082,0.01683710495207268,-0.009997662491752896,0.2522670235824969,-0.32192143956120745,0.876252352796771,0.2213530245003052
-0.0001269282381760686,-4.4513415683735004e-05,0.0013740751537640692,-7.220582789106811e-06,-0.0025203891532519346,-0.009177636405467088,0.01791044647686965,-0.006125108455582309,0.2919697691609348,0.08327585864995368,0.619965007718988,0.5531577827338123
-0.00014159406234944338,-0.00012170080863867583,0.0013489209725797812,-3.618837945786521e-05,-0.0004127756814230215,-0.0062598421855210775,0.016356567158605194,0.0003315491218306302,0.1295529252048478,0.5002829853392484,0.35080818418448567,0.7381737327487754
-0.00014167005760256233,-0.00015465289050740647,0.001314086768938195,2.5005725832850922e-06,0.00039757663079923204,-0.00033057418822505114,0.015974441985410006,0.007406241286399429,0.032517537239602906,0.6855706141199568,0.8543158367328418,0.6767647001649844
-0.0001356985954674973,-0.00013250464700855324,0.001295949969972263,9.505962664536372e-05,0.0007967157962137758,0.0047602228879956975,0.01969604809373598,0.011105569526016296,0.047310295843305844,0.332588801124193,1.1715544404887177,0.06310094775838881
-0.00012283681766188265,-7.210949528412844e-05,0.001328700619251018,0.00020075127654942663,0.0017756397649091535,0.007318807456889261,0.026151931634347515,0.01003276045479629,0.1484744978957697,0.17912811265451956,1.401171323189954,-0.2776627620023897
-9.710120720258642e-05,6.819434698501259e-06,0.001426958887195144,0.00029042184469847503,0.003371482326950092,0.008466978539636676,0.032797571826810125,0.00790135317501339,0.17069401451241797,0.05050610389496357,1.2095057708589327,-0.14861869395419025
-5.46379223550101e-05,9.343365333941433e-05,0.0015779387767240307,0.0003746356152560385,0.00512117464256517,0.008855865188545937,0.0366962559512996,0.008941400936499304,0.17924444861059782,0.027271225886888684,0.8517801095953268,0.356628246251373
2.0816159072110077e-06,0.0001857962738701199,0.0017477149119454914,0.0004846688183210501,0.006222733009879052,0.009616658917595175,0.036556820965324976,0.013065239676503013,0.041067224852178535,0.12488751992295899,0.4018819487661136,0.4681395017493688
6.754130932612351e-05,0.0002897826677642455,0.0018983845820060472,0.0006408820282685258,0.0068692056739034476,0.01118061986122995,0.032874962919118636,0.018177402312992134,0.08822730795270059,0.18790466880399592,0.14329549754898308,0.5542930255484555
0.00013522563415070313,0.0004046538439789523,0.0020158731889335594,0.0008474550465238086,0.0066676592910124765,0.011793615381711408,0.02992060833871623,0.023137201338064413,-0.12853658453089487,-0.06530556470770421,0.5473826419269003,0.4376667794660001
0.0001939516659654043,0.0005108372813578139,0.0021224955613082805,0.0010871283704707781,0.005077547071927758,0.009443072094060905,0.030701716008560448,0.02479746345132949,-0.1894858592860488,-0.4048030928223961,0.8903879475983083,-0.10561435681298437
0.0002364148729695823,0.0005875230585936325,0.002248663867306086,0.001320776713929894,0.0034150943289078424,0.005894083353102819,0.03382979506333304,0.02193220524049369,-0.14300468931793428,-0.304994655369221,1.016776918912575,-0.4674372853541755
0.00026546026172839235,0.0006408828084648386,0.002403339867267083,0.001513414451712388,0.002393983422854164,0.004777866621138411,0.03640325480119877,0.016595342316005117,-0.06121749189280137,0.08175130897633942,0.7794640842169351,-0.5999352995435394
0.0002872734351618236,0.0006998319111730846,0.002567480222260753,0.0016507479124912533,0.0019686512638320904,0.007011953920510783,0.03572266606986771,0.010871349839767935,-0.02384893991161338,0.3650661508981349,0.3659672250732178,-0.5448631957038972
0.0003123978080478796,0.0007866750005535802,0.002707139057148221,0.0017397409320092905,0.003056223313379104,0.010356663955588336,0.031506950779958354,0.006927254063839514,0.24136334982101612,0.3038758561173759,0.07243877250127762,-0.24395595948178683
0.0003554097474378566,0.0008977442048202534,0.0027978644847068855,0.0017983370075302216,0.005546164564616299,0.01185717689774631,0.02593598460410689,0.0047919610403466956,0.25662490042642294,-0.003773267685781012,0.09491704788479405,-0.183102645216777
0.0004206468586515122,0.0010026044537881067,0.0028414078223698716,0.0018435193709512305,0.007501257678114818,0.00911487289582435,0.02207053280082286,0.004244511643855094,0.13439372227328072,-0.544687532698611,0.4135416470147648,0.07361276591845667
0.0004945110489305036,0.0010633846645389554,0.0028599779277792034,0.0018848158945980336,0.007271580377683469,0.003041169254345392,0.020941338153375875,0.004014793085505532,-0.1803291823595503,-0.6700531955971806,0.6421684790522031,-0.11955647758836885
0.000550773268370332,0.0010685130175862826,0.002872557669464063,0.0019178191802320583,0.0039808635102822005,-0.0020154986448799664,0.02087246005592851,0.002585864041299399,-0.47781419112070345,-0.341280384247891,0.6256049570146887,-0.16622933125285777
0.0005631357465736513,0.0010416955156909082,0.002880875505327833,0.0019327463675746334,-0.0015083678696183383,-0.0033480017341949095,0.02008895698915788,0.0003995734272156273,-0.6200320848594043,0.07477976638490236,0.4992434851875498,-0.2710287915638966
0.0005243110653882245,0.001012761948265003,0.0028755560074322883,0.0019242105402391158,-0.006256568367467016,-0.0024387117509861254,0.018144993304065632,-0.0021067388943191556,-0.3296080147103311,0.10707823025685448,0.3935128333503658,-0.23023367274305995
0.00045900421407054834,0.0009896927493793669,0.0028506002309122277,0.0018891235697417082,-0.006804801896068221,-0.0021751280261411085,0.016161701264254723,-0.00491065520516237,0.21996130899009003,-0.05436148528785112,0.4913778142438173,-0.3305495894255829
0.0004109104183088703,0.000959394378763034,0.0028068640187551936,0.001825639529553196,-0.0028139572562673873,-0.0038845460971254657,0.014388906176670893,-0.007786152832540066,0.5782076189700767,-0.2875221289090203,0.4356122237957819,-0.24454993604995645
0.00040994698556299266,0.0009119150917872838,0.0027428910583864774,0.0017443714559341784,0.00262127070709186,-0.005611311298024562,0.01211435162191825,-0.008467461891263451,0.5088379737017727,-0.05783091127079898,0.3910259208100543,0.10828812430527945
0.0004451337792508378,0.000859151856239715,0.002657621767276863,0.0016622419162757149,0.004416088030477168,-0.004941335811489199,0.01012964002849128,-0.007958446040429258,-0.1498745090247111,0.1918260085778717,0.4935808160609164,-0.006484954138440746
0.00047057474353102746,0.0008201264927462275,0.0025593199637036126,0.0015771116602903209,0.0006721048255607645,-0.002863736887208305,0.009507849129191042,-0.009067605156649545,-0.5989221319585696,0.223693776278307,0.6636100596354012,-0.2153468691056165
0.00045126163695634677,0.0007996395045480108,0.0024677868101832074,0.0014764759320451744,-0.0045347261404969025,-0.0012336607524350404,0.011483370039060449,-0.011059540492379743,-0.44244406125296387,0.1023214506763459,1.0130431778948448,-0.18304019804042293
0.0003967362075107724,0.0007825191999306653,0.0024019237606550856,0.001361941856147988,-0.006370359748617969,-0.0021904001710340557,0.014641869927647575,-0.011847274687057548,0.07531733962875053,-0.29366933439614895,0.900205855378945,0.025493359104861946
0.0003453689525468866,0.0007472735921138923,0.002361254748031811,0.0012555118599675596,-0.0039030912441591916,-0.0048587213923205405,0.01652217742003,-0.009438724549028134,0.4181363612630049,-0.2399949098611479,0.7574046986539048,0.4562166685010206
0.0003254642654495317,0.0006941515280537866,0.0023318957954365817,0.0011840855215546062,-7.78461753117945e-05,-0.005765691419700599,0.016903881933256506,-0.004846543133562533,0.3469126525064745,0.05860090438513621,0.6004852595477611,0.4622196145920997
0.00033492396816629024,0.000648237476923546,0.00230389121014621,0.0011576623090487554,0.0019697867186635053,-0.0034171188063475294,0.016793050881001564,-0.0004380993676076344,0.06261392628858548,0.41111361828547766,0.6588975855576155,0.4194691385988799
0.0003545825934362186,0.0006383265350455186,0.002276843665173895,0.0011719184279670703,0.0019619383353221683,0.0014349304307420467,0.017095289996867873,0.0032893231512706148,-0.06418360295685283,0.5592962291324376,0.6830992931720111,0.3260153651767699
0.00036965714802599913,0.0006763934072310954,0.002262139083861984,0.0012153392686155265,0.001052972582633936,0.006178444006373315,0.01926164361308243,0.0053948449784206225,-0.11760954758079362,0.3894064859938162,1.0317204856272655,0.09508900025323164
0.0003795141271950279,0.0007405069601050377,0.0022832288132925115,0.001270538214216538,0.0009184232511718183,0.006644266568415155,0.024254152145355444,0.005644944141781691,0.09069968128837008,-0.29624197358544824,1.2483302763837025,-0.04506916758101798
0.0003946233316215452,0.0007879827934771512,0.002353404215002186,0.0013256684593865886,0.00210341763413164,0.0028509001060075356,0.029078778068911872,0.005381104892228412,0.1462991953035943,-0.4624313188960756,0.9981439638839478,-0.007698682329637885
0.0004189010138629873,0.0007995573808795979,0.0024506445102814847,0.0013833746800440416,0.0027521188141567832,-0.0005359826255181836,0.029667130859280275,0.0061601392392622014,-0.016558959298565712,-0.2149452274090683,0.40107564974609766,0.1635055517363957
0.00044147220277836023,0.0007975355158618019,0.0025280344632939975,0.0014520851535533015,0.0017621189689177997,0.00013160962195897313,0.025108709615554767,0.007581955462589767,-0.181441009749231,0.34846367690449964,-0.03121084293483478,0.12085769292911741
0.00044911220730124474,0.0008115717257759366,0.002553984068283788,0.001529567734644843,-0.0002341180643408978,0.0026756323608679716,0.01937906125473579,0.007914560755718522,-0.21780639690250847,0.1603408708773001,0.16683022632740485,-0.05433663430336666
0.0004406019285055879,0.0008405133333821903,0.0025381013887269196,0.0015925696996383285,-0.0014679376947904716,0.003112689160382772,0.016742252706222982,0.004685832242978586,-0.028957529187406267,-0.07292951097434008,0.5873571195263982,-0.5914090682446205
0.00042828501231240195,0.0008610331177494076,0.002513451047889595,0.001603454740265415,-0.000995445543846717,0.0009912677130606922,0.017625528998644422,-0.0025088241175612817,0.12345595937615719,-0.3513547784900758,0.8708471945142546,-0.847522203863353
0.00042682874479697233,0.0008538764574126847,0.002499853490523313,0.0015425788029265193,0.0007041920407607938,-0.002422599780405279,0.018952809400431696,-0.009666363350217854,0.21647155754534494,-0.33141872020311847,0.6761579413995653,-0.5839856426679615
0.0004393598712710858,0.0008229187296138695,0.0024848674958368156,0.0014265311843633583,0.0018020332540618945,-0.003768945779357764,0.01734784153460122,-0.01354316036241434,0.0030966851148751806,0.06214952041262145,0.2843975409907038,-0.19137375977133586
0.0004534366992910559,0.0007931146665448845,0.0024402539414615336,0.0012929948729782997,0.0010133323499321258,-0.0021918668344392276,0.01302729746267477,-0.013164101914597394,-0.16083686594082894,0.2532662685710858,0.13304270018037156,0.2671854493347252
0.00045394786861309433,0.0007789645135079986,0.002356693665929801,0.0011789803987098616,-0.000911098485524435,-0.0006381637729379506,0.00955849730331116,-0.009638792939090222,-0.22404930115048324,0.0574743437291696,0.45474632350327093,0.437876345766709
0.00043717464626194817,0.0007650250769925631,0.002258396374761192,0.0011059055207981781,-0.002443545984704797,-0.0021497235301491677,0.010079894335299473,-0.00497618264324647,-0.08244019868558908,-0.359786295171413,0.9310821384507566,0.49464571340204144
0.0004090138245731299,0.000721957744623694,0.0021827802679422795,0.0010747690838487495,-0.003188618353058859,-0.006463742943624635,0.014094734173250507,-0.0012511047466392594,-0.06657427498522325,-0.5030175875236804,1.1534348846958151,0.2503698659194007
0.00037484164447020355,0.0006392152923524515,0.002146284143783068,0.001077135065469607,-0.003645817667526409,-0.010084747510623864,0.017903890867239546,0.0017243010708107727,-0.024865587908286774,-0.2211833258761653,0.8899455096583573,0.3447112975706057
0.000339029827480958,0.0005412188502569572,0.0021333040350743383,0.0011086347190034835,-0.003516545730322696,-0.00951454090847501,0.018797937263347046,0.004575629635964522,0.05071997534902942,0.33522464630593585,0.5704128251195082,0.2255544154601442
0.00030819816141501425,0.00047139059265761165,0.002122609899650278,0.0011577518068389507,-0.0026497874828660564,-0.004451110611394093,0.018361085524173277,0.0052477879311289164,0.12263167414229845,0.6774614131102477,0.6237658826021025,-0.0911227564272653
0.00029276560381984314,0.0004621144501491378,0.0021127079229554323,0.0012035609516094512,-0.000436724036168166,0.0025958821096993268,0.018956369009189983,0.003914041022971173,0.3199810151972796,0.7319371311084362,0.7768398699576033,-0.1756266252042834
0.00030260962644709745,0.0005137323649089683,0.002117745585333475,0.0012346704410862261,0.002405528561619026,0.0077277008422667725,0.021349013338751024,0.0023078568723838185,0.2484695043601588,0.294426615405053,0.9832380515109701,-0.14561020491318744
0.00034109744008125036,0.0005945945217197868,0.002158030712039366,0.0012519888153620202,0.005292034165211557,0.00844473051989692,0.026005861874759617,0.0011558179827749933,0.32883161635834746,-0.15102067987902346,1.2296807112471129,-0.0847975730085776
0.0004033312173018349,0.0006718053576836244,0.0022439335996750688,0.0012575343593574562,0.007154721278905346,0.006997436672870604,0.030472565524713353,-4.6709183687800027e-05,0.04370580638041022,-0.13843808952623982,0.9452090742999996,-0.15570786028398106
0.0004722220124410742,0.0007424719993637075,0.0023548544477840576,0.0012622407051854666,0.006623437748942521,0.007135891663146024,0.031009453969416855,0.0009879783492898963,-0.1499625123729752,0.16612908758132394,0.44371767019706587,0.3626453668795203
0.0005281999707294587,0.0008191178311575645,0.0024487006966896893,0.0012955854133531795,0.004572153908734365,0.008193274695625367,0.027057645684041905,0.005680963284252679,-0.26029425566865594,0.04534751891454447,0.047469728284309176,0.5759516201130362
0.0005625208449113288,0.0008967427908459912,0.0025006641835065976,0.0013754164755643903,0.0022920209276396605,0.007331717242059973,0.022632901551672146,0.01028524915798949,-0.195732340550285,-0.2176590096276232,0.3491305007981037,0.3449055546343255
0.0005783124418358102,0.0009495085587495286,0.002524340885715167,0.0014786596868331147,0.0008662984572566275,0.0032214363386475044,0.021400288762374237,0.010363393095755383,-0.08941215352632159,-0.6043971710548706,0.6858959968986796,-0.32927676708114684
0.0005821977112854645,0.0009524559656909687,0.0025439296137159534,0.0015618123533467636,-8.92445673257808e-05,-0.0026319549503594905,0.0218153067101154,0.006267140206974403,-0.10169645139016006,-0.5662810867465284,0.6786566482059176,-0.4899738106750492
0.000572005560139197,0.0009057565063273127,0.002562597450301583,0.00160134819276324,-0.0019491856619277188,-0.006707936922371695,0.021216110479343027,0.001640027676320893,-0.27029176753022754,-0.24891530765591252,0.48305316119597264,-0.4354486954556528
0.0005415976144515283,0.0008366749741341076,0.002564483531112054,0.0015916207577947874,-0.004132403475606016,-0.0071083695162693274,0.018458955555083506,-0.003585514670011434,-0.16635179520543197,0.16882878887638597,0.24706490950848814,-0.6096597738108126
0.0004949308322092051,0.0007765291252848002,0.0025311225081034753,0.0015276587410087011,-0.005200952972858627,-0.0049208002535921554,0.014166689715533306,-0.009206888687205823,-0.04735810424509024,0.2686850636590483,0.17603097813783697,-0.514615029628065
0.0004433599194475363,0.0007358414038507882,0.0024545423329121433,0.0014160011688811706,-0.005113229579475131,-0.003216744033210246,0.009815125118532669,-0.013124625738300276,0.06490278292178953,0.07212618041733365,0.23520515801840058,-0.26893238059082536
0.0004004638922015678,0.0006967696010046957,0.002342072934036949,0.0012755879667433214,-0.0034659758697185607,-0.004597616536008245,0.006988844978760881,-0.014958014689269576,0.26454795902952444,-0.34830068097693356,0.4810878695836066,-0.09774540960303446
0.00037600958061096123,0.000629910425724681,0.002210329267000688,0.0011219536954029114,-0.0014248864484027587,-0.008774218519994702,0.005960271486319391,-0.015768839578812407,0.14366992523363598,-0.48701971582035775,0.5947464874844605,-0.06441956830553186
0.0003609883788464689,0.0005236489877907444,0.002071262609399588,0.0009613874017300332,-0.0015793539044957035,-0.012478069066792614,0.005524246865792986,-0.016344419155763235,-0.17456341645222495,-0.2537503935392249,0.5995976439666234,-0.050696347084633886
0.00033084197300616594,0.0003926614560502775,0.0019272947657207324,0.0008000084922328193,-0.004449927263564892,-0.013719437281300774,0.0049800342707683725,-0.01593136274367954,-0.39955125536161284,0.005476750637593231,0.5731088925848188,0.13330762950137276
0.00026843696024896795,0.0002580605041613439,0.0017816977388772498,0.0006447413802404507,-0.008031075287874705,-0.013200753096485943,0.005198410232867538,-0.015122059654794191,-0.3166783495003497,0.09826008632537286,0.7521153553913794,0.028552988275696634
0.00018111132443444428,0.00013229387372009293,0.0016461903785073653,0.0004922431757522867,-0.009434051875030028,-0.01195257299176425,0.006997967565487966,-0.015377581242838601,0.036083032069285204,0.1513759346189656,0.8893451666890709,-0.07965730588457853
9.475917615602932e-05,2.2053331988465256e-05,0.001529833337703785,0.00033832693617063544,-0.007836377780652964,-0.010095535354561286,0.00902847414612845,-0.015405666673491651,0.2834517868061276,0.22003159282162743,0.7983052049953906,0.07404021975396835
3.56065557655853e-05,-6.75021590500732e-05,0.0014294942191251238,0.00019266627105889752,-0.00399414629743584,-0.007815562853146404,0.01020155201047171,-0.013726466348855933,0.4849945098372973,0.23596290746134896,0.7178594234296262,0.26179984517317545
1.968586006902813e-05,-0.00013118536235392312,0.0013404432189301377,7.347026348560044e-05,0.0008100071581244074,-0.00492107780762358,0.011286097822863512,-0.010112735165803487,0.47583618127475225,0.3429341016432157,0.7805987946050991,0.46094639143731386
4.347316313625353e-05,-0.00015757148734526474,0.0012688896143099617,-5.180950944864426e-06,0.003947453455320672,-0.00035614719064474415,0.013701031125433718,-0.0056175077202894885,0.1516530781645007,0.5700520217525515,0.983936921465307,0.4380990976654858
8.442692550814414e-05,-0.000135655032750496,0.0012337398978574455,-4.212608796754923e-05,0.004243299019057451,0.0047394381095984955,0.018566875456395453,-0.001771519684247472,-0.09248396541714499,0.44906503829609634,1.2707810002834048,0.3310985095429174
0.00011849616237037397,-7.256824032955571e-05,0.0012575923253324852,-4.4228998247723135e-05,0.0025705483533885135,0.007877920374589559,0.02550145991094492,0.001350937628212691,-0.24206616771664247,0.1786314147021164,1.3976849461828533,0.29339295294911516
0.00014089068827247194,1.3315887522560324e-05,0.0013475718712584986,-7.11574677227431e-06,0.0019083568270310798,0.009298905195833651,0.031792299146590215,0.0060717126668770735,0.10962786244515577,0.10556554954670183,1.1420319565025712,0.6507620547837613
0.00017124081749790403,0.00010533287470811052,0.0014868317880794033,9.289499910541997e-05,0.004161669018055338,0.00910449224127639,0.03535753408992312,0.01393043650866178,0.341034575759696,-0.14444814045815413,0.8525640877203754,0.9209827135731802
0.00022739361520170931,0.00019377266109252793,0.0016476661993839838,0.00027606401388410086,0.00706889052270572,0.008583465035607092,0.03610719804332542,0.022703366447074394,0.24040972517038028,0.040242699324294584,0.578917758516449,0.8336032741093428
0.0002998742010731916,0.0002879180620999598,0.001810919262714286,0.0005331397527922232,0.007427226651590742,0.01024561516587928,0.03584126449506744,0.02871178133455007,-0.16874249939337593,0.29218732673014314,0.6494445873883204,0.36807970338579266
0.00036539657703517126,0.0004018278984924368,0.0019763845428975987,0.0008202631304410007,0.005677248540805186,0.012536352112616125,0.03654964141392755,0.02871289419520543,-0.18125312276373506,0.16596006261722573,0.773779851940065,-0.3678571312547204
0.0004154803263117774,0.0005265375463263879,0.0021560798946034148,0.001081043612446367,0.004339501314516036,0.012405577454174088,0.03868727879956803,0.02344320220586782,-0.08629632249409491,-0.19211499430563306,0.9352966807443964,-0.6860812666128021
0.00045554770630654536,0.000643578676781756,0.002353599922028125,0.001279640968955889,0.003673974684437561,0.011002648636899532,0.04011457655770647,0.016276269096036577,-0.04680900352160022,-0.0884707691492781,0.6317119264396563,-0.7473053553534458
0.0004881159136278687,0.0007502342759355041,0.0025415790202881977,0.0014056593457920008,0.0028396667798271033,0.010328471193850086,0.03677909296664049,0.008927406271185798,-0.12005257740049124,-0.04636471946061116,-0.017259589096488726,-0.7224672096167101
0.0005158742570351291,0.0008481194157130607,0.0026749635295300225,0.0014633474814670546,0.002712001901624983,0.00924855676166124,0.02919565875405694,0.00261022086382497,0.09451960176006713,-0.1696181669771577,-0.2178781978638552,-0.5409698718554555
0.0005490788057115973,0.0009283340517586025,0.002728247684088264,0.0014694084298696231,0.0039289078336686555,0.00679437044744711,0.020759022029923732,-0.0013980311833112682,0.1488615846486674,-0.32121909586566844,-0.1879000914064216,-0.260680537571792
0.0005897740269538998,0.0009740795150329629,0.0027046748677707205,0.0014461914208197867,0.004210136414791836,0.002354722207424974,0.0138242645789001,-0.0032453706266560266,-0.09261586842403124,-0.5667105521387588,0.08249765675806031,-0.10878735109715965
0.0006184774169850889,0.000970878183245825,0.0026293144986811127,0.0014006672172250088,0.0015305415914459906,-0.0029949885648525533,0.010401511475510761,-0.00585947009229955,-0.44330309624513786,-0.5032316023167467,0.5145007781204366,-0.41403254203154505
0.000608153174894569,0.0009190241214235799,0.0025383979094883305,0.001317147970440696,-0.003595390009549964,-0.00737582379959646,0.010713020558265195,-0.010844379264563013,-0.581883223954053,-0.37293544463203476,0.8293500939868149,-0.5829492924211476
0.0005471215622446841,0.0008334660926198849,0.002449761485901026,0.001181812563176742,-0.008610932520427026,-0.009735781961142541,0.010857544596606367,-0.016222702188227786,-0.42122527822135925,-0.09905618767718138,0.4811037692377843,-0.49271529231180666
0.0004523787087551408,0.0007302175764890787,0.0023476345702865033,0.00100432078205105,-0.010337638177481632,-0.010913921265018696,0.008014922152821525,-0.019275654036910617,0.07588414681043809,-0.13657167309804974,0.23192079756161232,-0.11787507742475933
0.0003610535194224188,0.0006164370586877275,0.0022084173136717334,0.0008125201719239427,-0.007927399689062775,-0.011842182295251552,0.003439476396556909,-0.019084467988510833,0.4061635508733332,-0.04908053294852133,0.13453910674182945,0.15611228710471592
0.00030029716812601104,0.0004965793440912514,0.0020288408003968374,0.0006313460686704962,-0.004223870570218771,-0.012129360624043661,-5.692917920369425e-05,-0.01715035266217846,0.3345422728954677,-0.0083551328099003,0.44772883366241467,0.23071077816175867
0.00026766232190956926,0.0003753926438519319,0.0018326561584036788,0.00047067517394324716,-0.002303098673069586,-0.012107979423820239,0.00011785065290443458,-0.014983826283271355,0.049612106534369316,0.012631372854584821,0.8687761883155757,0.20259449761966197
0.0002405934620724667,0.00025878786944574697,0.0016540851275687034,0.0003245747387344982,-0.0031106732943509243,-0.011212975457416747,0.0034657930524328827,-0.014236260758478435,-0.211127030790637,0.16636942042611347,1.0823613471464788,-0.05308139266107814
0.0001956487186302286,0.00016119994162051165,0.001512852612888291,0.00017808911731680133,-0.005878275394096697,-0.008304610107630315,0.007585553883817077,-0.015060863525060938,-0.3423933891585176,0.41530364953117305,1.0231398746867248,-0.11183916065542243
0.00012499314270308443,9.683632397335839e-05,0.00140771214018683,2.9022452829386446e-05,-0.008252839791332138,-0.004568113421800337,0.010684201448223131,-0.014752469372422037,-0.13251949028857068,0.33199568763482246,0.8781386937508507,0.17351799118320288
4.913979328304686e-05,6.030428350794321e-05,0.001329037409015774,-0.00010056009009164646,-0.006917830092675377,-0.0027382946712826983,0.012878702189898132,-0.011164039211784544,0.399521430019923,0.03396806246870532,0.8423105101405143,0.5441680409442956
3.870503380996922e-06,3.1965580277805105e-05,0.0012730400758523505,-0.00018653244861643946,-0.002136027887734612,-0.002929445974744922,0.015219681049749575,-0.006030432493174053,0.55683901096823,-0.07219832316115005,0.9074343173861389,0.4825533027778025
3.68337419170297e-06,1.7722004850598358e-06,0.001241700325325493,-0.0002230421342793126,0.002098602049875822,-0.0031092299838041317,0.017810218717211355,-0.0012715046394005721,0.29008697655385673,0.03624152134930814,0.8922222716625822,0.46923226797689377
3.174814236744592e-05,-1.4794684570248456e-05,0.0012355594728955025,-0.0002133080058019375,0.0035143515852727675,-0.00020414702725752697,0.02025946066912299,0.0032183303348755927,-0.006937069474467594,0.5447750699600128,0.8791751742761097,0.42873472687833913
6.208253332288913e-05,1.3199401302142541e-05,0.0012561937443396408,-0.00016263195809228216,0.0025525266058158743,0.005802964201735726,0.02316524349203708,0.006916879207055474,-0.18542792641691108,0.6566471758386377,0.9835304458630735,0.3109750475576373
8.625864837009019e-05,9.594310920673126e-05,0.0013136803335541164,-7.905378023239954e-05,0.0022826964036243382,0.010745777379182019,0.02762992422319051,0.00979875636492105,0.13146188597860387,0.33191545965062075,1.1909547559239773,0.26540038401547783
0.00011664341121141986,0.00020975211601591035,0.0014185148624910023,2.9481408690458935e-05,0.003794256164641595,0.012016023982653798,0.03263483143651906,0.011908281419650644,0.17085006622484744,-0.07786613895626504,1.0915757422980983,0.15650462693044076
0.0001625823875632379,0.0003184734305575285,0.001564395948789699,0.0001599460798043046,0.00539353910572201,0.009728238925669826,0.035839235695552724,0.01418465280311849,0.14900652199123565,-0.3796908724405291,0.8308541650649995,0.2987696497631288
0.00021726858534561405,0.0003970513877427527,0.0017285886132489294,0.0003182316546324626,0.0055437004507532224,0.005987352511375022,0.036297147068625774,0.0174724621625131,-0.1189742529849932,-0.36848641041843166,0.5422771651059745,0.3587922221157934
0.0002586587506179141,0.0004481430212502624,0.00188575725270427,0.0005062219174388087,0.002734332603706789,0.00423097419012692,0.034434430694774774,0.02012559039875612,-0.4428993164242935,0.017210746168811242,0.36672861568019066,0.1718334251328103
0.00026926737931403353,0.0004936180108883525,0.002015289347402102,0.0007093167136347856,-0.0006126068644829049,0.004864023737491102,0.030769838117124092,0.020493368840439258,-0.22648857721364524,0.10939916330402533,0.1819019243460377,-0.09827773679618279
0.0002593743446422486,0.0005490149746118608,0.002107064472111447,0.0009013484944336522,-0.0013660000698740835,0.006215369007210562,0.026883036697077242,0.01791298731933406,0.07580993613540951,0.16086989063986656,0.3222868472009571,-0.41779856742485666
0.0002569028080893099,0.0006111876999967029,0.002171929041802429,0.0010467293133703207,0.0008716927592863489,0.006219176069757843,0.025387727113451716,0.011163176467999646,0.37172862969667697,-0.1601084781304104,0.6602002916303026,-0.9321636028420263
0.000282818163208412,0.0006648547444088068,0.002231916729550756,0.0011121388812654163,0.004311378264534069,0.004514232812662949,0.02590766030854611,0.0019187371110194595,0.3162084713528671,-0.1808801732885682,0.7253354029449414,-0.9167242685540112
0.00033252184752062335,0.0007058727926411639,0.0022910404047964085,0.0010951137893615117,0.0056293585979082,0.0036893768338084726,0.025214924612916818,-0.0053237554918003725,-0.05261240467804107,0.01590897751767295,0.4176665134855647,-0.5317742520099552
0.00038495945323679747,0.0007458335997440059,0.002325303768061065,0.0010230665692438194,0.004858162545326624,0.004302784586759914,0.02093559791234696,-0.009085688531738087,-0.10162680583827399,0.10677257307261534,0.008017201956828646,-0.22061235597758777
0.0004247364274275336,0.0007880704916452143,0.0023086002825277517,0.0009262095518377018,0.0030972322928205964,0.004144593793481777,0.01502155485332273,-0.010285714949485426,-0.25055924466293156,-0.1384107317282427,0.09072324179469027,-0.019392927571879714
0.00044007700454152583,0.0008091425609399463,0.0022364758656629917,0.0008256445228912413,-2.911687002214551e-05,6.982006546461632e-05,0.00985141164605773,-0.009827290839806678,-0.37471058790561684,-0.6765440138751894,0.15679717230867485,0.11107774950762928
0.0004201250226067694,0.0007681269664729732,0.0021241922258405867,0.000736678022948082,-0.003961279516929138,-0.008272938958859234,0.0069897102617936715,-0.007966009148825193,-0.41172194147578167,-0.9920077909895805,0.5524116063948782,0.2611785886886676
0.00036004846767310843,0.0006451472309278011,0.001996503284001203,0.0006643899884342706,-0.008054031469803057,-0.016323008150175195,0.006770351242662025,-0.006491597753937089,-0.40682844909900207,-0.6180060472736116,0.6852656453351574,0.03370369028895326
0.00026465675572772134,0.0004690602011301693,0.001868406670036472,0.0005952591322581358,-0.011024310919274362,-0.018894397809351156,0.006908175836724205,-0.00733457348128987,-0.18722744079525888,0.10372811543841964,0.6238483290336433,-0.20229883575950958
0.00015135988191371816,0.00030232362901734706,0.0017358598265500794,0.00050607390332769,-0.01163506384352627,-0.014452916613213294,0.005880305338329695,-0.010502472304799282,0.065076855944877,0.7845681237891527,0.45212662684381966,-0.4312809289423728
4.9389872747770196e-05,0.00019388686067215688,0.0015927282768284355,0.0003805431703628707,-0.008758937989663323,-0.007234437055824743,0.004791234589673928,-0.014603674288164581,0.5101483148277125,0.6591277876885574,0.6116082789813918,-0.388959467730687
-3.684028665647886e-06,0.00014231409635352655,0.001450478332639216,0.00021876363199294573,-0.001855842293020292,-0.0030801158079013244,0.006056626444814637,-0.017752233385820406,0.8704708245008937,0.17173646189612624,0.923019147603115,-0.24075235180047805
1.4638970463663172e-05,0.00011663469100764829,0.0013318770490912337,3.208527671121549e-05,0.005520442118882504,-0.002055765261274328,0.009520966717921337,-0.019583437670525644,0.6047860578796654,0.03313364742927305,1.05139796257459,-0.1254885051405693
7.819539067244988e-05,0.00010016855421642137,0.001247281266703179,-0.0001620395901537751,0.007190841922874839,-0.0012374620969710561,0.012857726676800128,-0.019241535702472477,-0.2707060970811984,0.1305269854313813,0.8975030847575328,0.1938688987512026
0.0001244223492087411,9.367166559179008e-05,0.0011875153516700326,-0.0003300908860252809,0.002054549784383403,-6.191562795520179e-05,0.014486940188903064,-0.01436872347182868,-0.7565523306170888,0.10458230837178956,0.7098886732194193,0.7806935473775568
0.00010857256040917106,9.02118691322213e-05,0.0011378186332632627,-0.0004288534902759185,-0.005224507544297408,-0.0006300436639585524,0.014871566002075377,-0.005383797378298843,-0.6992591351190734,-0.21820791557245967,0.6485855449714083,1.0162916713284105
3.4152455822985315e-05,6.610940945865955e-05,0.0010973612416053978,-0.0004339618222864561,-0.009659513372939743,-0.004190448270753799,0.01633480553868409,0.004362130976191314,-0.18774203060939365,-0.49387300578658966,0.9256114179066993,0.9328939995696208
-6.0178868779532167e-05,3.1983647646610205e-06,0.0010816858908030693,-0.00035652724000433567,-0.009206751547563754,-0.008391760668045905,0.019827974173182602,0.011124785480232775,0.27829439568459147,-0.3463894736718316,1.0545713645493677,0.41963690123867137
-0.00013389691627684012,-8.371384977368748e-05,0.001099648310971539,-0.00023586920815962283,-0.0055368579518978375,-0.008990682239623798,0.023062359732843776,0.013006820888709794,0.4556843234485918,0.22660515935625303,0.873854802939232,-0.043229819543267656
-0.00016558382002275629,-0.00015018302011190717,0.0011421261956243369,-0.00011315837121765856,-0.0008005227972853945,-0.004303151828020138,0.024731067070048206,0.01153534649968306,0.4915827074738969,0.7109009229644789,0.7414357200580189,-0.2510650582620788
-0.00015095767621801953,-0.0001536366602599325,0.001193936421040115,-9.457620442503587e-06,0.0037257515582327467,0.0036124237984150754,0.02492882788543985,0.009204803655347933,0.41367216362973136,0.8722142023225636,0.5796654985766746,-0.21504351060494686
-0.00010151712299983402,-7.860600441912303e-05,0.001247753245585981,7.028610098390415e-05,0.006162359085404356,0.01139370736974682,0.0251323868960658,0.006743940629933614,0.07364934180459048,0.684042511943785,0.7425953591048805,-0.277129094477917
-3.541988970247192e-05,5.745695463112869e-05,0.0013093829772139551,0.00011670872811664648,0.007057087574068064,0.01581888444030352,0.026491409301861453,0.0025405847966148507,0.10529635592815101,0.20099290216755517,0.8107581776106146,-0.5635420721858357
3.865964006899737e-05,0.0002058866235495726,0.0013830834117515784,0.00012231051018288418,0.007758818380225796,0.013867049343385259,0.027546527477995658,-0.001420228383367311,0.03504980530339541,-0.5913599215512075,0.6818145131725916,-0.2286205638105966
0.00011483091057886276,0.0003071281922837127,0.001461623165587741,0.00010767689876407757,0.007475435721747281,0.006381264403442762,0.027459273161569278,-0.0015064939003940111,-0.09172633699909838,-0.9057970664372919,0.582283679098497,0.21136746040525656
0.000174180335368728,0.00032959896664600544,0.0015247265239307565,0.00010565593118615643,0.004394449236225768,-0.0018871095309842155,0.024459248379366267,0.0011023003848097828,-0.5244709601052042,-0.7478777204481037,0.09926042001726587,0.3103913966355022
0.0001838660283822833,0.0002827728357650348,0.0015393605143300833,0.0001339053041807729,-0.002457310633514711,-0.007478116645209912,0.017765399572831547,0.004547574214113514,-0.8458810138428916,-0.3703237023970356,-0.156481125767845,0.378663369225244
0.0001205940779532521,0.0001932032758563751,0.001489895232252541,0.0001877848394407889,-0.010197079452291528,-0.010435795336522028,0.011639393883992374,0.006228332837889686,-0.7020727499124719,-0.2212120358653875,0.21282904355637566,-0.04251164447000966
1.2209656747443129e-06,8.116261482136249e-05,0.0013987079116118235,0.00024085784394465643,-0.013677543003410026,-0.01197233687048049,0.009420991860196591,0.004386268062883817,0.005980039688772365,-0.0860962709263049,0.6250396072408327,-0.3259013105311642
-0.00011997596891303489,-4.299997279592444e-05,0.0013039235876161754,0.00025983649740456545,-0.010561843914145814,-0.012860180652976895,0.010919993213006188,-0.0005905373709020134,0.6171597781640701,-0.09147248557297605,0.9563097188774515,-0.6694597762260017
-0.0001892946568467171,-0.00016545361895197372,0.0012338371245663388,0.00022222178119328298,-0.00330189367259063,-0.011630548578232959,0.01436056404935896,-0.00693240587135448,0.8348302701469668,0.33739890052176325,1.0133535039494679,-0.5989139238644916
-0.00019019979109814907,-0.0002503695293495613,0.0011918771816931458,0.0001299997505473543,0.0031208668223042376,-0.0053526335012845615,0.016545297248334832,-0.011512000257831254,0.44972182883200684,0.9181841148679162,0.7051421914020718,-0.31700495343086343
-0.00014318484252554678,-0.00025550815315108404,0.0011619569356684423,7.724351303398724e-06,0.0062821228922162195,0.004324908740980019,0.016768503419056897,-0.012943079590959862,0.18252938515038952,1.017324333585,0.621048098298706,0.030789086805141697
-7.963672754329471e-05,-0.00017729320737746595,0.0011368787581162393,-0.00011545460114556706,0.006427500104234193,0.0113180804137436,0.017513710942834933,-0.011692710898833296,-0.1534539427467947,0.38131000096771617,0.8095424620132657,0.21928465162017163
-2.5449182255205956e-05,-6.248712059124723e-05,0.0011307991928912525,-0.0002120461821027969,0.004410008953383557,0.011643136943500144,0.020568225884500132,-0.007625605292612669,-0.2500442874233326,-0.3162986950164073,1.0829095818761392,0.5941364696239537
8.767201541197965e-06,2.5113944486383554e-05,0.0011608448071794956,-0.0002470142524713734,0.0024332678058972264,0.005877076072026012,0.024738746845480962,0.0006319912188973709,-0.1453039420739335,-0.8369134792784192,1.0327436658763918,1.0573828326780543
2.5559692576153136e-05,4.389180261267358e-05,0.0012305027772026092,-0.00018452033009367248,0.0009252304010938079,-0.002121504446768006,0.02849069703147416,0.01186679325664281,-0.1563035388867502,-0.7628026244803845,0.9991954268786122,1.1895775748710335
2.5266238457595742e-05,5.616285646202662e-06,0.0013283065535530504,-1.4905902486927987e-05,-0.0009839212248052864,-0.005533598946526176,0.030367908110946536,0.02205609226470609,-0.22552678629306866,0.08038372452875042,0.6577958445722284,0.8482822267416219
6.447711400536892e-06,-2.9781266960343038e-05,0.0014377427355145981,0.0002301309449972158,-0.0027797841866064837,-0.001545911574782964,0.030817178153695408,0.026951277232122678,-0.1336458060671708,0.7171537498198919,0.7136072195339106,0.13075476674169573
-1.7149064887220086e-05,-5.323719547091489e-06,0.0015535648525219494,0.0004889217847576134,-0.001939571070944912,0.006437421057433275,0.031645095120107304,0.024806890719956835,0.30168842919948513,0.8795127766233557,0.7335252293048332,-0.559632069174864
-1.4155949816321828e-05,9.120062752790133e-05,0.001684837954267751,0.000699278660588158,0.0025381940851245638,0.012867448357565288,0.03390737510138542,0.017264484446152077,0.59386460201441,0.4064926834030469,1.0004798225071552,-0.9488491855860877
3.984328191669834e-05,0.00022770378622603702,0.0018425881502067906,0.0008329686577415584,0.00826165226147947,0.014433183382061853,0.03694051395875496,0.009473514984528007,0.5508270332565712,-0.0933456785037341,0.8876970045231182,-0.6093447067387265
0.0001415528570245167,0.00036163641376811594,0.0020166277289406735,0.0009044052770372484,0.012080262760084205,0.01235334212635393,0.03716525166035399,0.004813808874610006,0.21289506646437584,-0.3226225726378502,0.43879959135305213,-0.32259651524487354
0.00025571140386554717,0.00047688303692888453,0.002169183904786186,0.000945243987422964,0.010751446608121886,0.010695982505799789,0.03264383338108094,0.0033539332025331148,-0.4786582968568398,-0.008849351472978162,-0.06153419165129648,0.03062138082949528
0.00033442541168063496,0.0005814182770266453,0.002262988196434661,0.0009846580411617665,0.004991354954895672,0.010211065513752369,0.02541487482094659,0.004528877545227377,-0.6733600337884029,-0.08813404693650573,-0.10270846481920926,0.2043674877093571
0.00035649260790107835,0.0006667562220706888,0.0022908335782737014,0.00104037731351889,-0.000577915710806994,0.006856523495056322,0.019452051419193876,0.00661497692619732,-0.44049409935213024,-0.5827743568027037,0.1916928400250314,0.21285238848463162
0.00033780054332724986,0.000699219808455074,0.0022775691378071465,0.001110818377771688,-0.0031604972039587045,-0.00036380621817928057,0.017192910359827562,0.007473235924362287,-0.07602219927821185,-0.8612915858444168,0.6380280036580706,-0.04120058885163824
0.0003084952439518246,0.0006606518376859778,0.0022561400470384454,0.0011738409090113152,-0.0027005626711263464,-0.0073497879356399535,0.01781912135876466,0.0051312703235631505,0.16800910584468343,-0.5359047576477178,0.7687632516857144,-0.427192531308189
0.0002849425847694193,0.0005753479741768476,0.002243787592725157,0.0012019150123961564,-0.002009969165354716,-0.009710984766186086,0.019008237650910077,0.00048355035340508223,-0.02989040469035731,0.06366539153849127,0.7506090622997336,-0.5023514627234247
0.00025980795398058417,0.0004925681842317816,0.002233472079242398,0.0011829366292035396,-0.0030169569924123098,-0.006844973222827117,0.01822650952487055,-0.004279226991928432,-0.17150716072116146,0.5095369171333024,0.374594368048726,-0.4502040063432782
0.00022434394393976688,0.00045420286116104407,0.002206261857414042,0.0011241260309784442,-0.004075845015751149,-0.0008280913913203914,0.015629295981790622,-0.007482892653090649,-0.040270443946606505,0.6938394491680426,0.38751197889165295,-0.19052912588916504
0.0001898548114051609,0.0004667441459932228,0.0021572664597364773,0.0010402471107435673,-0.0028219814911700446,0.0033363483577561323,0.013869474355028971,-0.009292891393884735,0.29104314886282745,0.13904850064726215,0.542072751312382,-0.17147062226965204
0.00018186893598552098,0.0004948222640430708,0.0020965350685539486,0.0009436208067576444,0.001224806407242061,0.0022792752522134817,0.013282097280797675,-0.010032369403299856,0.5183144308195936,-0.3504631217557923,0.6220008893977236,0.02357502038662762
0.00020946225274633053,0.0004972522696726371,0.0020335005955598663,0.0008474253070933848,0.004293856944919849,-0.0017932741263002325,0.013408857992718345,-0.009206730529552062,0.09549567671596393,-0.4640467539469506,0.6849003085427754,0.14155275436293113
0.0002463560367458395,0.00046232911026735366,0.001975289698249848,0.00076174861294163,0.0030848998549819406,-0.005191357754756453,0.014246812417610418,-0.00792860830079889,-0.3372870947035457,-0.2155699717442935,0.7642396319920042,0.11407169138770312
0.000255406330278629,0.0004113219512667212,0.0019258843640959631,0.0006852133700970842,-0.0012748411484240366,-0.005010074045370041,0.015169970623945017,-0.007378440268110265,-0.5346611059776497,0.25182671362157605,0.7019410648312805,-0.004038084849978141
0.00022047765876106893,0.00037858338284665986,0.0018814634643808553,0.0006140364540363846,-0.005710893155087979,-0.001537639638642225,0.015243699305365845,-0.006856942944029649,-0.3525492953551388,0.4426601677239871,0.59435372700925,0.10833754966610121
0.0001584506621472194,0.000373376227131437,0.0018404667583249833,0.000557569592641374,-0.006694506167681923,0.0004962084955976542,0.0158548093557922,-0.004436429334972487,0.15582669283634987,-0.035890540876011234,0.809417338632386,0.3757651721453312
0.00011118706822951212,0.00037205256711524284,0.0018147940279689399,0.0005324801056771873,-0.0027582126158595356,-0.0007609404988364872,0.01830849444533156,-0.0005814680578648521,0.6314320175281276,-0.21553925801081703,0.962868734831851,0.3952270832761957
0.00011439496246911705,0.00035535199011988615,0.001815369770506918,0.000546804861444845,0.003399791463780522,-0.0025791749002348503,0.02110450393459649,0.003446419211396388,0.6001687983998838,-0.14810762226885554,0.8778822185774999,0.4103503705760523
0.00016384760020967288,0.0003359211758363358,0.0018409078780069674,0.0006011642963681283,0.006490736084330644,-0.0013069879564752162,0.023300967437745804,0.007425467773260291,0.018020125710140444,0.40254501102078233,0.8429595376087273,0.38545934179672825
0.00021792036962627043,0.0003517797380657783,0.001885906295362072,0.0006879078444358396,0.004323817798988867,0.0044787004023637104,0.02499656590560754,0.009923241840281958,-0.4514037827784958,0.7545926607470029,0.7777092115199853,0.11409547160760525
0.00023828496894485784,0.00042208994757896647,0.001949920063635246,0.0007918601212054756,-0.0002508979352713837,0.009583341500273925,0.027104037621359676,0.010867213513645245,-0.46353936407355434,0.2663355588350401,0.9253341871868073,0.07469886306505202
0.00022892828890282483,0.0005196036885919143,0.002040310377062923,0.0009069580926251678,-0.0016204380731352198,0.009919406702315637,0.030271874936508156,0.012152380770293193,0.18963133650078712,-0.19912251842669793,0.9897823313992533,0.18233458826453752
0.0002314028025722981,0.0006034564962851849,0.0021602267788038273,0.0010333911040935476,0.002115340807029876,0.006851154836338483,0.033009255284005154,0.013134221523382781,0.557524439532232,-0.4145278547687329,0.8392427936565112,0.014033562353380269
0.00027527438828818827,0.0006638916195341401,0.0023008876628298047,0.0011700493573159002,0.006658976336148157,0.005235869813452572,0.0344207713935227,0.014197429121087738,0.35120266629142427,0.09147085019155077,0.7246094838033632,0.19860795718761093
0.0003499807864688218,0.0007265301053240851,0.0024425372160967245,0.0013141600997247226,0.008282303299978552,0.007291827344536429,0.03320698913219375,0.014624719360676736,-0.026537273525345073,0.3197206560252205,0.3141831194872115,-0.11314990926981139
0.0004245667516739418,0.0008131709708270428,0.002559434351148393,0.0014497097088492026,0.006634889741045445,0.010036345756055097,0.029470287750472387,0.012485202464219266,-0.3029454382612762,0.22918302627851317,0.22002565972488025,-0.3147534700216825
0.00047656562451612103,0.000915799693499178,0.0026391393443994642,0.0015493726190412274,0.0037648848273903962,0.01048939877837195,0.025768560772074223,0.007447379574185683,-0.27105554446973357,-0.1385724218151424,0.321178000151852,-0.6928111079850341
0.0005034336240513132,0.0010058825045804016,0.002689549344306287,0.001586756035170164,0.0016087150796480361,0.007527163437872764,0.02361128908162274,2.930365160164379e-05,-0.16017840507873848,-0.45387464628469487,0.5289167173142162,-0.7908040765317736
0.0005119809675237076,0.0010561008242658725,0.0027227096170984854,0.0015529875364282482,0.00010075361483084973,0.0025165004992214173,0.022318615349149393,-0.006783003399984807,-0.14141388788469877,-0.5482579414455745,0.4940975917474792,-0.5716573337855164
0.0005099617011818423,0.0010577973623115094,0.0027354295919345727,0.001470186199718486,-0.0005046068832039218,-0.0021771928900940294,0.019523229490400543,-0.009777263941967642,0.020341788277744466,-0.3904807364175149,0.22837429205911525,-0.027194774611050798
0.0005014683354637693,0.0010184368816630318,0.0027086647207930107,0.0013840216069153808,-0.0011940662604106676,-0.005694903239601494,0.01442164615361954,-0.007455654618653383,-0.15823366371909364,-0.31306133348397813,0.03285809614104962,0.49151663927390277
0.00048163708085974434,0.0009489498395275053,0.002634511188553188,0.001330399150080223,-0.002772184660394328,-0.008202505187503813,0.010045497270748303,-0.0032688367483782056,-0.15739001627763838,-0.1884590560964855,0.37346118284106766,0.3458469347811326
0.00044538949266535033,0.000859579922115444,0.0025287676050105654,0.001310785106502237,-0.004477332978484474,-0.009671478294908447,0.008103635893059567,-0.0006539719672189713,-0.18363964734039084,-0.10533556538444133,0.51971559717755,0.1771260214507142
0.0003928480311133092,0.0007614665584482212,0.00241725660166941,0.0013060583090975604,-0.006030959331923754,-0.009951194438536108,0.008892013311041875,-0.0002913875137163513,-0.1270856233474652,0.049392336658908964,0.9195089419752767,-0.10460913075019021
0.00032947474361970554,0.0006690934928748601,0.0023298545356528425,0.0012843413488835462,-0.006643698166796977,-0.008523418676136105,0.012925423357976966,-0.004052004529086483,0.004537856372820559,0.23616281582109167,1.1687221229681064,-0.6475142723238361
0.0002719712028674451,0.0005997182741300378,0.0022825554013448813,0.0012146561788350667,-0.00485700998365511,-0.005351625072828348,0.016912599652763306,-0.009885029480609424,0.3527997802555528,0.39819590484045986,0.9102621915455262,-0.519090717980752
0.00024258192725167593,0.0005673988086981566,0.0022595594272760613,0.0010934034272662859,-0.0010208451394987236,-0.0011122680135479002,0.017786055405805083,-0.014365520833146739,0.41443318857572453,0.44967550701562964,0.5459780146191942,-0.3770075525267109
0.00025109739880312706,0.0005770938987057759,0.0022254479757214687,0.0009440280671186575,0.0027239394497889508,0.00305128601507176,0.014689504155608803,-0.01550955119637894,0.3345237292818103,0.38303529870830244,0.11626079089791475,0.14820147988027044
0.0002895903923241719,0.0006160887601094124,0.0021532203511922783,0.0007985303176659365,0.004974659254420017,0.00474768626565553,0.010162820810885632,-0.013589998694165255,0.11562023164440294,-0.04375524859154856,0.2599515957138161,0.2357090205624668
0.00033654222753395295,0.0006507677782891285,0.002048499467191155,0.0006709074111021236,0.004415707787536191,0.002188117370287693,0.008190852261222167,-0.011934582618597329,-0.2274105250211681,-0.4681585304820187,0.6272037499098557,0.0953741945511184
0.0003608328515058547,0.0006445568726591861,0.0019387151463321583,0.0005540614081017114,0.00044241700684416116,-0.0034302984962761595,0.009150133439310832,-0.011434617981485108,-0.5672476311172379,-0.6555246428307518,0.8462015412642421,0.004618732871325637
0.000339413070858443,0.0005849458685622624,0.0018434307969054633,0.0004415530530687624,-0.004726373136326498,-0.00849190232310859,0.011090846547682625,-0.011067053025104691,-0.4665103975168938,-0.35679612253573423,0.8234901359664812,0.06889425840475782
0.00027537641576023866,0.0004890277535710247,0.0017599524225575913,0.00033302825965252455,-0.008080957883314376,-0.010691720675138959,0.01151132845507542,-0.01063790565814288,-0.2044065518806817,-0.08316754787033964,0.5421553010684428,0.016935214987604308
0.00019040835618692353,0.0003821387045499559,0.0016734483167813118,0.0002294337338573621,-0.00891265403134865,-0.010686089129074797,0.010485700262001114,-0.010080999500889606,0.03806732227382703,0.08429385708317205,0.5342681158730609,0.09444601646305051
0.00011175453244512597,0.00028196344104689446,0.001573361921301873,0.00012810410997864295,-0.006818110717010861,-0.009348963571537491,0.008794870514443538,-0.010184925274854224,0.38084134059373076,0.18313125442428924,0.40911499017178876,-0.11523117125597393
6.477424708611234e-05,0.00019510593445381608,0.0014581417228980232,2.4911791782558917e-05,-0.0025779463547918645,-0.008022537747078185,0.00745893967711893,-0.010453538364362582,0.46719153185006856,0.08215391046757181,0.6052478979196545,0.061508553354302276
5.672644712732577e-05,0.0001203602427941107,0.001336826843867949,-7.692310593870146e-05,0.0009683863630345511,-0.0069266005848628905,0.007575934389198662,-0.009913441179889492,0.2420750117152145,0.13703352197548713,0.6997001000526568,0.04651088354031563
6.878181348628954e-05,5.726030206618601e-05,0.0012271014171167545,-0.00017444786575862329,0.0014426869087582023,-0.005693387560722044,0.00977683013289489,-0.009591510784094872,-0.14721490257048425,0.10960908285268223,1.0220281042429535,0.017875195618608508
7.522410509026681e-05,1.3828468510025264e-05,0.0011455446028967513,-0.00026277541218422954,-0.00015422858796274833,-0.0029929791505101063,0.013209656895436862,-0.008073998501026377,-0.17216819677370587,0.43047259918970526,0.9460863038218057,0.2856272609950903
6.678750627924444e-05,3.8081595708371293e-06,0.0010986541514415387,-0.00033123195560891207,-0.0015330911742417262,0.000988917362672479,0.01671010268585307,-0.005617310183910129,-0.10360432048208967,0.36590670344681187,1.0355519098178008,0.20571040242815952
5.00129061746957e-05,2.6993289253334884e-05,0.001089010322828458,-0.00037536300878402535,-0.0018218288466680208,0.003648108573827072,0.02065898146386324,-0.003208900451112527,0.04585678599683074,0.1659315387841067,1.0357729013405976,0.2759715441313608
3.887766805356988e-05,6.32892406573766e-05,0.0011185849463013217,-0.00039340207149497324,-0.0004052187775571432,0.0036110817069812725,0.024553793103041927,-0.0003989120910770517,0.2374652278253448,-0.17333691215326663,1.0247384820515046,0.2860261278757342
4.6483048510488265e-05,9.224529444811314e-05,0.0011795883034125423,-0.0003746678276681044,0.00192629486894082,0.002180129051166036,0.02694472819153462,0.004145760856450824,0.2288375014742478,-0.11285361900978064,0.7349975912033992,0.622908461629841
7.138297786867448e-05,0.00011575855306667098,0.0012531386218566764,-0.0003014258315013212,0.003053691002696423,0.0025225226725455307,0.027063185369624626,0.010502638376905809,-0.0033582747231272747,0.1813323432856796,0.5702428999709672,0.6484670424611558
9.958535841047804e-05,0.000156489310668353,0.0013258588784595966,-0.00017326188038722752,0.002586785105664291,0.0056236288477908725,0.02677871582329182,0.01513015184591293,-0.09002290468329904,0.43888889176338874,0.6544122463188364,0.2770356513402683
0.000122622006298668,0.00022413072823989513,0.0014031241147254491,-1.2823793806390858e-05,0.0020205444719736975,0.007904654666517555,0.027972181302211123,0.0169574654702544,-0.02322522205481964,0.01731627198194785,0.8658299050213889,0.08842707352802592
0.0001436213969284541,0.0003010517524432416,0.0014970031763412899,0.00015505363682127634,0.002179333653983526,0.007479550174151738,0.03010148089328949,0.01661802065527904,0.05498305845678536,-0.10233717045511137,0.8415790687506497,-0.156316036523098
0.0001712790692208257,0.00037189343133932915,0.0016071525315753754,0.00030976106711758035,0.0033522008044907913,0.006688785605065771,0.031226240025860004,0.014323465403981762,0.17959037164466768,-0.05581574336208195,0.6649218133198176,-0.3025950137363578
